<?xml version="1.0"?>
<opencv_storage>
<opencv_ml_svm>
  <format>3</format>
  <svmType>C_SVC</svmType>
  <kernel>
    <type>RBF</type>
    <gamma>3.3750000000000002e-02</gamma></kernel>
  <C>6.2500000000000000e+01</C>
  <term_criteria><epsilon>1.1920928955078125e-07</epsilon></term_criteria>
  <var_count>900</var_count>
  <class_count>2</class_count>
  <class_labels type_id="opencv-matrix">
    <rows>2</rows>
    <cols>1</cols>
    <dt>i</dt>
    <data>
      0 1</data></class_labels>
  <sv_total>62</sv_total>
  <support_vectors>
    <_>
      1.31583298e-02 1.35827921e-02 1.40072536e-02 1.41487410e-02
      1.40072536e-02 1.65540278e-02 2.09401380e-02 2.41943467e-02
      2.57507097e-02 2.73070708e-02 2.84389704e-02 2.88634319e-02
      2.90049203e-02 2.67411210e-02 2.78730206e-02 2.92878952e-02
      2.88634319e-02 2.68826094e-02 2.19305493e-02 1.54221281e-02
      1.23094050e-02 1.28753548e-02 1.37242787e-02 1.13189928e-02
      7.92329479e-03 6.36693370e-03 6.22544624e-03 5.80098387e-03
      5.51800895e-03 4.52759722e-03 9.33816936e-03 1.25923799e-02
      1.34413047e-02 1.55636156e-02 2.03741882e-02 2.53262464e-02
      2.73070708e-02 2.88634319e-02 3.19761559e-02 3.42399552e-02
      3.50888781e-02 3.53718549e-02 3.50888781e-02 3.49473916e-02
      3.50888781e-02 3.50888781e-02 3.53718549e-02 3.48059051e-02
      3.09857428e-02 2.58921962e-02 2.22135242e-02 1.91008002e-02
      1.81103889e-02 1.37242787e-02 9.62114427e-03 6.79139607e-03
      5.94247133e-03 5.94247133e-03 5.80098387e-03 4.81057214e-03
      8.06478225e-03 1.16019677e-02 1.59880780e-02 2.26379856e-02
      2.61751711e-02 2.90049203e-02 3.04197930e-02 3.11272312e-02
      3.31080556e-02 3.46644148e-02 3.52303647e-02 3.53718549e-02
      3.52303647e-02 3.50888781e-02 3.50888781e-02 3.52303647e-02
      3.53718549e-02 3.50888781e-02 3.36740054e-02 3.09857428e-02
      2.57507097e-02 2.40528602e-02 2.16475744e-02 1.52806407e-02
      1.03285816e-02 7.49883289e-03 6.36693370e-03 5.65949641e-03
      5.37652150e-03 4.52759722e-03 8.20626970e-03 1.52806407e-02
      2.44773217e-02 2.71655843e-02 2.99953315e-02 3.29665691e-02
      3.38154919e-02 3.48059051e-02 3.53718549e-02 3.57963145e-02
      3.57963145e-02 3.57963145e-02 3.56548280e-02 3.56548280e-02
      3.56548280e-02 3.56548280e-02 3.57963145e-02 3.57963145e-02
      3.57963145e-02 3.43814418e-02 3.07027679e-02 2.80145071e-02
      2.51847599e-02 2.10816246e-02 1.55636156e-02 1.10360179e-02
      8.63073207e-03 5.94247133e-03 5.37652150e-03 4.52759722e-03
      1.41487410e-02 2.46188100e-02 2.81559955e-02 3.08442563e-02
      3.21176425e-02 3.39569785e-02 3.45229283e-02 3.50888781e-02
      3.55133414e-02 3.57963145e-02 3.57963145e-02 3.57963145e-02
      3.57963145e-02 3.57963145e-02 3.57963145e-02 3.57963145e-02
      3.57963145e-02 3.57963145e-02 3.57963145e-02 3.49473916e-02
      3.28250788e-02 3.15516926e-02 2.90049203e-02 2.68826094e-02
      2.26379856e-02 1.55636156e-02 9.76263173e-03 6.22544624e-03
      5.51800895e-03 4.38610977e-03 2.37698853e-02 2.81559955e-02
      3.15516926e-02 3.52303647e-02 3.55133414e-02 3.60792913e-02
      3.60792913e-02 3.60792913e-02 3.59378047e-02 3.57963145e-02
      3.57963145e-02 3.57963145e-02 3.60792913e-02 3.60792913e-02
      3.60792913e-02 3.60792913e-02 3.57963145e-02 3.57963145e-02
      3.57963145e-02 3.57963145e-02 3.60792913e-02 3.59378047e-02
      3.52303647e-02 3.16931792e-02 2.78730206e-02 2.27794740e-02
      1.37242787e-02 6.36693370e-03 4.95205959e-03 3.39569803e-03
      2.70240959e-02 3.19761559e-02 3.29665691e-02 3.55133414e-02
      3.56548280e-02 3.60792913e-02 3.60792913e-02 3.60792913e-02
      3.59378047e-02 3.57963145e-02 3.57963145e-02 3.57963145e-02
      3.60792913e-02 3.60792913e-02 3.60792913e-02 3.60792913e-02
      3.57963145e-02 3.57963145e-02 3.57963145e-02 3.59378047e-02
      3.60792913e-02 3.59378047e-02 3.59378047e-02 3.42399552e-02
      3.24006192e-02 2.87219454e-02 2.15060860e-02 9.62114427e-03
      4.66908468e-03 3.53718526e-03 2.94293817e-02 3.42399552e-02
      3.45229283e-02 3.60792913e-02 3.60792913e-02 3.60792913e-02
      3.60792913e-02 3.60792913e-02 3.59378047e-02 3.57963145e-02
      3.57963145e-02 3.57963145e-02 3.60792913e-02 3.60792913e-02
      3.60792913e-02 3.60792913e-02 3.57963145e-02 3.57963145e-02
      3.57963145e-02 3.59378047e-02 3.60792913e-02 3.60792913e-02
      3.60792913e-02 3.59378047e-02 3.56548280e-02 3.21176425e-02
      2.82974821e-02 1.88178252e-02 6.64990861e-03 3.82016017e-03
      2.97123566e-02 3.52303647e-02 3.53718549e-02 3.60792913e-02
      3.60792913e-02 3.59378047e-02 3.59378047e-02 3.59378047e-02
      3.59378047e-02 3.57963145e-02 3.57963145e-02 3.57963145e-02
      3.59378047e-02 3.59378047e-02 3.59378047e-02 3.59378047e-02
      3.57963145e-02 3.57963145e-02 3.57963145e-02 3.59378047e-02
      3.59378047e-02 3.59378047e-02 3.59378047e-02 3.59378047e-02
      3.59378047e-02 3.45229283e-02 3.31080556e-02 2.80145071e-02
      1.47146909e-02 5.37652150e-03 2.91464068e-02 3.60792913e-02
      3.60792913e-02 3.60792913e-02 3.60792913e-02 3.59378047e-02
      3.59378047e-02 3.59378047e-02 3.59378047e-02 3.59378047e-02
      3.59378047e-02 3.59378047e-02 3.57963145e-02 3.57963145e-02
      3.57963145e-02 3.57963145e-02 3.59378047e-02 3.59378047e-02
      3.59378047e-02 3.59378047e-02 3.59378047e-02 3.59378047e-02
      3.59378047e-02 3.59378047e-02 3.60792913e-02 3.59378047e-02
      3.56548280e-02 3.11272312e-02 2.40528602e-02 8.34775716e-03
      3.05612814e-02 3.60792913e-02 3.60792913e-02 3.60792913e-02
      3.60792913e-02 3.59378047e-02 3.59378047e-02 3.59378047e-02
      3.59378047e-02 3.59378047e-02 3.59378047e-02 3.59378047e-02
      3.57963145e-02 3.57963145e-02 3.57963145e-02 3.57963145e-02
      3.59378047e-02 3.59378047e-02 3.59378047e-02 3.59378047e-02
      3.59378047e-02 3.59378047e-02 3.59378047e-02 3.59378047e-02
      3.60792913e-02 3.60792913e-02 3.60792913e-02 3.40984650e-02
      3.08442563e-02 1.68370027e-02 3.11272312e-02 3.60792913e-02
      3.60792913e-02 3.60792913e-02 3.59378047e-02 3.59378047e-02
      3.59378047e-02 3.59378047e-02 3.59378047e-02 3.59378047e-02
      3.59378047e-02 3.59378047e-02 3.57963145e-02 3.57963145e-02
      3.57963145e-02 3.57963145e-02 3.59378047e-02 3.59378047e-02
      3.59378047e-02 3.59378047e-02 3.59378047e-02 3.59378047e-02
      3.59378047e-02 3.59378047e-02 3.60792913e-02 3.60792913e-02
      3.60792913e-02 3.52303647e-02 3.40984650e-02 2.50432715e-02
      3.19761559e-02 3.59378047e-02 3.59378047e-02 3.59378047e-02
      3.59378047e-02 3.60792913e-02 3.60792913e-02 3.60792913e-02
      3.60792913e-02 3.60792913e-02 3.60792913e-02 3.60792913e-02
      3.59378047e-02 3.59378047e-02 3.59378047e-02 3.59378047e-02
      3.60792913e-02 3.60792913e-02 3.60792913e-02 3.60792913e-02
      3.59378047e-02 3.59378047e-02 3.59378047e-02 3.59378047e-02
      3.59378047e-02 3.59378047e-02 3.59378047e-02 3.57963145e-02
      3.52303647e-02 3.04197930e-02 3.22591290e-02 3.59378047e-02
      3.59378047e-02 3.59378047e-02 3.59378047e-02 3.60792913e-02
      3.60792913e-02 3.60792913e-02 3.60792913e-02 3.60792913e-02
      3.60792913e-02 3.60792913e-02 3.59378047e-02 3.59378047e-02
      3.59378047e-02 3.59378047e-02 3.60792913e-02 3.60792913e-02
      3.60792913e-02 3.59378047e-02 3.59378047e-02 3.59378047e-02
      3.59378047e-02 3.59378047e-02 3.59378047e-02 3.59378047e-02
      3.59378047e-02 3.59378047e-02 3.59378047e-02 3.35325152e-02
      3.16931792e-02 3.59378047e-02 3.59378047e-02 3.59378047e-02
      3.59378047e-02 3.60792913e-02 3.60792913e-02 3.60792913e-02
      3.60792913e-02 3.60792913e-02 3.60792913e-02 3.60792913e-02
      3.59378047e-02 3.59378047e-02 3.59378047e-02 3.59378047e-02
      3.60792913e-02 3.60792913e-02 3.60792913e-02 3.59378047e-02
      3.59378047e-02 3.59378047e-02 3.59378047e-02 3.59378047e-02
      3.59378047e-02 3.59378047e-02 3.59378047e-02 3.59378047e-02
      3.59378047e-02 3.45229283e-02 3.16931792e-02 3.59378047e-02
      3.59378047e-02 3.59378047e-02 3.59378047e-02 3.60792913e-02
      3.60792913e-02 3.60792913e-02 3.60792913e-02 3.60792913e-02
      3.60792913e-02 3.60792913e-02 3.59378047e-02 3.59378047e-02
      3.59378047e-02 3.59378047e-02 3.60792913e-02 3.60792913e-02
      3.60792913e-02 3.59378047e-02 3.59378047e-02 3.59378047e-02
      3.59378047e-02 3.59378047e-02 3.59378047e-02 3.59378047e-02
      3.59378047e-02 3.59378047e-02 3.59378047e-02 3.46644148e-02
      3.01368199e-02 3.60792913e-02 3.60792913e-02 3.60792913e-02
      3.59378047e-02 3.59378047e-02 3.59378047e-02 3.59378047e-02
      3.59378047e-02 3.59378047e-02 3.59378047e-02 3.59378047e-02
      3.59378047e-02 3.59378047e-02 3.59378047e-02 3.59378047e-02
      3.59378047e-02 3.59378047e-02 3.59378047e-02 3.59378047e-02
      3.60792913e-02 3.60792913e-02 3.60792913e-02 3.60792913e-02
      3.60792913e-02 3.60792913e-02 3.60792913e-02 3.57963145e-02
      3.57963145e-02 3.52303647e-02 3.01368199e-02 3.60792913e-02
      3.60792913e-02 3.60792913e-02 3.60792913e-02 3.59378047e-02
      3.59378047e-02 3.59378047e-02 3.59378047e-02 3.59378047e-02
      3.59378047e-02 3.59378047e-02 3.59378047e-02 3.59378047e-02
      3.59378047e-02 3.59378047e-02 3.59378047e-02 3.59378047e-02
      3.59378047e-02 3.59378047e-02 3.60792913e-02 3.60792913e-02
      3.60792913e-02 3.60792913e-02 3.60792913e-02 3.60792913e-02
      3.60792913e-02 3.57963145e-02 3.57963145e-02 3.50888781e-02
      2.99953315e-02 3.60792913e-02 3.60792913e-02 3.60792913e-02
      3.59378047e-02 3.59378047e-02 3.59378047e-02 3.59378047e-02
      3.59378047e-02 3.59378047e-02 3.59378047e-02 3.59378047e-02
      3.59378047e-02 3.59378047e-02 3.59378047e-02 3.59378047e-02
      3.59378047e-02 3.59378047e-02 3.59378047e-02 3.59378047e-02
      3.60792913e-02 3.60792913e-02 3.60792913e-02 3.60792913e-02
      3.60792913e-02 3.60792913e-02 3.60792913e-02 3.57963145e-02
      3.57963145e-02 3.48059051e-02 2.98538450e-02 3.60792913e-02
      3.60792913e-02 3.60792913e-02 3.59378047e-02 3.59378047e-02
      3.59378047e-02 3.59378047e-02 3.59378047e-02 3.59378047e-02
      3.59378047e-02 3.59378047e-02 3.59378047e-02 3.59378047e-02
      3.59378047e-02 3.59378047e-02 3.59378047e-02 3.59378047e-02
      3.59378047e-02 3.59378047e-02 3.60792913e-02 3.60792913e-02
      3.60792913e-02 3.60792913e-02 3.60792913e-02 3.60792913e-02
      3.60792913e-02 3.57963145e-02 3.57963145e-02 3.48059051e-02
      2.92878952e-02 3.59378047e-02 3.59378047e-02 3.59378047e-02
      3.59378047e-02 3.60792913e-02 3.60792913e-02 3.60792913e-02
      3.60792913e-02 3.60792913e-02 3.60792913e-02 3.60792913e-02
      3.60792913e-02 3.60792913e-02 3.60792913e-02 3.60792913e-02
      3.60792913e-02 3.60792913e-02 3.60792913e-02 3.60792913e-02
      3.60792913e-02 3.60792913e-02 3.60792913e-02 3.59378047e-02
      3.59378047e-02 3.59378047e-02 3.59378047e-02 3.57963145e-02
      3.57963145e-02 3.48059051e-02 2.88634319e-02 3.57963145e-02
      3.57963145e-02 3.59378047e-02 3.59378047e-02 3.60792913e-02
      3.60792913e-02 3.60792913e-02 3.60792913e-02 3.60792913e-02
      3.60792913e-02 3.60792913e-02 3.60792913e-02 3.60792913e-02
      3.60792913e-02 3.60792913e-02 3.60792913e-02 3.60792913e-02
      3.60792913e-02 3.60792913e-02 3.60792913e-02 3.60792913e-02
      3.60792913e-02 3.59378047e-02 3.59378047e-02 3.59378047e-02
      3.59378047e-02 3.57963145e-02 3.57963145e-02 3.46644148e-02
      2.75900457e-02 3.56548280e-02 3.57963145e-02 3.59378047e-02
      3.59378047e-02 3.60792913e-02 3.60792913e-02 3.60792913e-02
      3.60792913e-02 3.60792913e-02 3.60792913e-02 3.60792913e-02
      3.60792913e-02 3.60792913e-02 3.60792913e-02 3.60792913e-02
      3.60792913e-02 3.60792913e-02 3.60792913e-02 3.60792913e-02
      3.60792913e-02 3.60792913e-02 3.60792913e-02 3.59378047e-02
      3.59378047e-02 3.59378047e-02 3.59378047e-02 3.57963145e-02
      3.57963145e-02 3.45229283e-02 2.68826094e-02 3.32495421e-02
      3.42399552e-02 3.60792913e-02 3.60792913e-02 3.60792913e-02
      3.60792913e-02 3.60792913e-02 3.59378047e-02 3.59378047e-02
      3.59378047e-02 3.59378047e-02 3.59378047e-02 3.59378047e-02
      3.59378047e-02 3.59378047e-02 3.59378047e-02 3.59378047e-02
      3.59378047e-02 3.59378047e-02 3.59378047e-02 3.59378047e-02
      3.59378047e-02 3.59378047e-02 3.60792913e-02 3.60792913e-02
      3.60792913e-02 3.57963145e-02 3.56548280e-02 3.35325152e-02
      2.54677348e-02 2.95708701e-02 3.26835923e-02 3.60792913e-02
      3.60792913e-02 3.60792913e-02 3.60792913e-02 3.60792913e-02
      3.59378047e-02 3.59378047e-02 3.59378047e-02 3.59378047e-02
      3.57963145e-02 3.57963145e-02 3.57963145e-02 3.57963145e-02
      3.59378047e-02 3.59378047e-02 3.59378047e-02 3.59378047e-02
      3.59378047e-02 3.59378047e-02 3.59378047e-02 3.59378047e-02
      3.60792913e-02 3.60792913e-02 3.60792913e-02 3.57963145e-02
      3.52303647e-02 2.87219454e-02 1.95252635e-02 2.63166595e-02
      3.01368199e-02 3.38154919e-02 3.46644148e-02 3.60792913e-02
      3.60792913e-02 3.60792913e-02 3.59378047e-02 3.59378047e-02
      3.59378047e-02 3.59378047e-02 3.57963145e-02 3.57963145e-02
      3.57963145e-02 3.57963145e-02 3.59378047e-02 3.59378047e-02
      3.59378047e-02 3.59378047e-02 3.59378047e-02 3.59378047e-02
      3.59378047e-02 3.59378047e-02 3.60792913e-02 3.60792913e-02
      3.60792913e-02 3.56548280e-02 3.39569785e-02 1.91008002e-02
      1.20264301e-02 2.09401380e-02 2.67411210e-02 3.07027679e-02
      3.38154919e-02 3.60792913e-02 3.60792913e-02 3.60792913e-02
      3.59378047e-02 3.59378047e-02 3.59378047e-02 3.59378047e-02
      3.57963145e-02 3.57963145e-02 3.57963145e-02 3.57963145e-02
      3.59378047e-02 3.59378047e-02 3.59378047e-02 3.59378047e-02
      3.59378047e-02 3.59378047e-02 3.59378047e-02 3.59378047e-02
      3.60792913e-02 3.60792913e-02 3.60792913e-02 3.53718549e-02
      2.90049203e-02 1.01870941e-02 6.22544624e-03 1.55636156e-02
      2.22135242e-02 2.57507097e-02 2.90049203e-02 3.35325152e-02
      3.46644148e-02 3.59378047e-02 3.59378047e-02 3.60792913e-02
      3.60792913e-02 3.60792913e-02 3.59378047e-02 3.59378047e-02
      3.59378047e-02 3.59378047e-02 3.60792913e-02 3.60792913e-02
      3.60792913e-02 3.60792913e-02 3.59378047e-02 3.59378047e-02
      3.59378047e-02 3.59378047e-02 3.60792913e-02 3.60792913e-02
      3.57963145e-02 3.19761559e-02 1.66955143e-02 6.93288306e-03
      5.09354705e-03 1.20264301e-02 1.58465896e-02 2.26379856e-02
      2.60336846e-02 3.02783065e-02 3.39569785e-02 3.57963145e-02
      3.59378047e-02 3.60792913e-02 3.60792913e-02 3.60792913e-02
      3.59378047e-02 3.59378047e-02 3.59378047e-02 3.59378047e-02
      3.60792913e-02 3.60792913e-02 3.60792913e-02 3.59378047e-02
      3.59378047e-02 3.59378047e-02 3.59378047e-02 3.59378047e-02
      3.60792913e-02 3.59378047e-02 3.35325152e-02 1.91008002e-02
      8.06478225e-03 6.50842115e-03 3.96164740e-03 7.49883289e-03
      8.48924462e-03 1.55636156e-02 2.12231111e-02 2.53262464e-02
      2.81559955e-02 3.08442563e-02 3.38154919e-02 3.57963145e-02
      3.59378047e-02 3.60792913e-02 3.59378047e-02 3.59378047e-02
      3.59378047e-02 3.59378047e-02 3.60792913e-02 3.60792913e-02
      3.60792913e-02 3.59378047e-02 3.59378047e-02 3.59378047e-02
      3.59378047e-02 3.59378047e-02 3.55133414e-02 3.29665691e-02
      2.07986496e-02 1.03285816e-02 7.64032034e-03 6.08395878e-03</_>
    <_>
      6.30676895e-02 6.30676895e-02 6.30676895e-02 6.10968210e-02
      5.68735376e-02 5.29318079e-02 4.87085246e-02 4.47667949e-02
      4.05435115e-02 3.66017818e-02 3.26600522e-02 2.84367688e-02
      2.44950391e-02 2.05533095e-02 1.66115779e-02 1.43591613e-02
      1.37960566e-02 1.35145038e-02 1.29514001e-02 1.23882955e-02
      1.21067436e-02 1.12620872e-02 1.04174307e-02 9.29122139e-03
      8.44656490e-03 7.32035656e-03 6.47570007e-03 5.91259543e-03
      5.91259543e-03 5.91259543e-03 6.30676895e-02 6.30676895e-02
      6.30676895e-02 6.10968210e-02 5.68735376e-02 5.29318079e-02
      4.87085246e-02 4.47667949e-02 4.05435115e-02 3.66017818e-02
      3.26600522e-02 2.87183225e-02 2.44950391e-02 2.05533095e-02
      1.66115779e-02 1.43591613e-02 1.37960566e-02 1.35145038e-02
      1.29514001e-02 1.23882955e-02 1.21067436e-02 1.12620872e-02
      1.04174307e-02 9.29122139e-03 8.44656490e-03 7.32035656e-03
      6.47570007e-03 5.91259543e-03 5.91259543e-03 5.91259543e-03
      6.30676895e-02 6.30676895e-02 6.30676895e-02 6.10968210e-02
      5.68735376e-02 5.29318079e-02 4.87085246e-02 4.47667949e-02
      4.05435115e-02 3.66017818e-02 3.26600522e-02 2.87183225e-02
      2.44950391e-02 2.05533095e-02 1.66115779e-02 1.43591613e-02
      1.40776085e-02 1.35145038e-02 1.29514001e-02 1.26698473e-02
      1.21067436e-02 1.12620872e-02 1.04174307e-02 9.29122139e-03
      8.44656490e-03 7.32035656e-03 6.47570007e-03 5.91259543e-03
      5.91259543e-03 5.91259543e-03 6.27861321e-02 6.27861321e-02
      6.27861321e-02 6.08152710e-02 5.68735376e-02 5.29318079e-02
      4.89900783e-02 4.50483486e-02 4.11066189e-02 3.71648856e-02
      3.29416059e-02 2.89998744e-02 2.50581428e-02 2.08348613e-02
      1.68931298e-02 1.46407131e-02 1.40776085e-02 1.35145038e-02
      1.29514001e-02 1.26698473e-02 1.21067436e-02 1.12620872e-02
      1.04174307e-02 9.29122139e-03 8.44656490e-03 7.32035656e-03
      6.47570007e-03 5.91259543e-03 5.91259543e-03 5.91259543e-03
      6.22230284e-02 6.22230284e-02 6.22230284e-02 6.05337173e-02
      5.65919876e-02 5.29318079e-02 4.92716320e-02 4.53298986e-02
      4.16697226e-02 3.77279930e-02 3.35047096e-02 2.92814262e-02
      2.53396947e-02 2.11164132e-02 1.68931298e-02 1.46407131e-02
      1.40776085e-02 1.35145038e-02 1.32329520e-02 1.26698473e-02
      1.21067436e-02 1.15436390e-02 1.04174307e-02 9.57277417e-03
      8.44656490e-03 7.60190887e-03 6.47570007e-03 6.19414775e-03
      6.19414775e-03 6.19414775e-03 6.19414784e-02 6.19414784e-02
      6.19414784e-02 6.02521636e-02 5.65919876e-02 5.29318079e-02
      4.95531820e-02 4.58930060e-02 4.22328264e-02 3.82910967e-02
      3.40678133e-02 2.98445299e-02 2.56212484e-02 2.13979650e-02
      1.71746816e-02 1.49222650e-02 1.43591613e-02 1.37960566e-02
      1.32329520e-02 1.26698473e-02 1.21067436e-02 1.15436390e-02
      1.04174307e-02 9.57277417e-03 8.72811768e-03 7.60190887e-03
      6.75725192e-03 6.19414775e-03 6.19414775e-03 6.19414775e-03
      6.16599247e-02 6.16599247e-02 6.16599247e-02 5.99706136e-02
      5.65919876e-02 5.32133617e-02 4.95531820e-02 4.61745560e-02
      4.27959301e-02 3.88542004e-02 3.46309170e-02 3.04076355e-02
      2.59028003e-02 2.16795169e-02 1.74562354e-02 1.49222650e-02
      1.43591613e-02 1.37960566e-02 1.32329520e-02 1.29514001e-02
      1.23882955e-02 1.15436390e-02 1.06989825e-02 9.57277417e-03
      8.72811768e-03 7.88346119e-03 6.75725192e-03 6.19414775e-03
      6.19414775e-03 6.19414775e-03 6.13783747e-02 6.13783747e-02
      6.13783747e-02 5.96890599e-02 5.65919876e-02 5.32133617e-02
      4.98347357e-02 4.67376597e-02 4.33590338e-02 3.94173041e-02
      3.51940207e-02 3.06891873e-02 2.64659040e-02 2.19610687e-02
      1.77377872e-02 1.52038177e-02 1.46407131e-02 1.40776085e-02
      1.35145038e-02 1.29514001e-02 1.23882955e-02 1.15436390e-02
      1.06989825e-02 9.85432602e-03 8.72811768e-03 7.88346119e-03
      7.03880424e-03 6.47570007e-03 6.47570007e-03 6.47570007e-03
      6.19414784e-02 6.19414784e-02 6.19414784e-02 6.02521636e-02
      5.68735376e-02 5.37764654e-02 5.03978394e-02 4.70192134e-02
      4.39221375e-02 3.99804078e-02 3.54755744e-02 3.12522911e-02
      2.67474558e-02 2.22426224e-02 1.80193391e-02 1.54853696e-02
      1.49222650e-02 1.43591613e-02 1.37960566e-02 1.32329520e-02
      1.23882955e-02 1.18251909e-02 1.06989825e-02 9.85432602e-03
      8.72811768e-03 7.88346119e-03 6.75725192e-03 6.19414775e-03
      6.19414775e-03 6.19414775e-03 6.25045821e-02 6.25045821e-02
      6.25045821e-02 6.08152710e-02 5.74366450e-02 5.43395691e-02
      5.09609431e-02 4.75823171e-02 4.44852449e-02 4.05435115e-02
      3.60386781e-02 3.15338448e-02 2.70290077e-02 2.28057262e-02
      1.83008909e-02 1.57669224e-02 1.49222650e-02 1.43591613e-02
      1.37960566e-02 1.32329520e-02 1.26698473e-02 1.18251909e-02
      1.06989825e-02 9.85432602e-03 8.72811768e-03 7.88346119e-03
      6.75725192e-03 6.19414775e-03 6.19414775e-03 6.19414775e-03
      6.30676895e-02 6.30676895e-02 6.30676895e-02 6.13783747e-02
      5.79997487e-02 5.49026728e-02 5.15240468e-02 4.81454208e-02
      4.50483486e-02 4.11066189e-02 3.66017818e-02 3.20969485e-02
      2.75921132e-02 2.30872780e-02 1.85824428e-02 1.60484742e-02
      1.54853696e-02 1.46407131e-02 1.40776085e-02 1.35145038e-02
      1.26698473e-02 1.18251909e-02 1.06989825e-02 9.85432602e-03
      8.72811768e-03 7.60190887e-03 6.75725192e-03 6.19414775e-03
      6.19414775e-03 6.19414775e-03 6.36307895e-02 6.36307895e-02
      6.36307895e-02 6.19414784e-02 5.85628524e-02 5.54657765e-02
      5.20871505e-02 4.87085246e-02 4.56114523e-02 4.16697226e-02
      3.71648856e-02 3.23784985e-02 2.78736651e-02 2.33688299e-02
      1.88639965e-02 1.63300261e-02 1.54853696e-02 1.49222650e-02
      1.40776085e-02 1.35145038e-02 1.29514001e-02 1.21067436e-02
      1.09805344e-02 9.85432602e-03 8.72811768e-03 7.60190887e-03
      6.47570007e-03 5.91259543e-03 5.91259543e-03 5.91259543e-03
      6.41938969e-02 6.41938969e-02 6.41938969e-02 6.25045821e-02
      5.94075099e-02 5.60288839e-02 5.26502579e-02 4.95531820e-02
      4.61745560e-02 4.22328264e-02 3.77279930e-02 3.29416059e-02
      2.84367688e-02 2.39319354e-02 1.91455483e-02 1.66115779e-02
      1.57669224e-02 1.52038177e-02 1.43591613e-02 1.37960566e-02
      1.29514001e-02 1.21067436e-02 1.09805344e-02 9.85432602e-03
      8.72811768e-03 7.60190887e-03 6.47570007e-03 5.91259543e-03
      5.91259543e-03 5.91259543e-03 6.39123470e-02 6.39123470e-02
      6.39123470e-02 6.22230284e-02 5.88444024e-02 5.57473302e-02
      5.23687042e-02 4.89900783e-02 4.56114523e-02 4.16697226e-02
      3.74464393e-02 3.26600522e-02 2.81552169e-02 2.36503817e-02
      1.91455483e-02 1.66115779e-02 1.60484742e-02 1.52038177e-02
      1.46407131e-02 1.37960566e-02 1.32329520e-02 1.23882955e-02
      1.12620872e-02 1.01358779e-02 9.00966953e-03 7.88346119e-03
      6.47570007e-03 6.19414775e-03 6.19414775e-03 6.19414775e-03
      6.36307895e-02 6.36307895e-02 6.36307895e-02 6.19414784e-02
      5.85628524e-02 5.51842265e-02 5.20871505e-02 4.87085246e-02
      4.53298986e-02 4.13881689e-02 3.68833356e-02 3.26600522e-02
      2.81552169e-02 2.36503817e-02 1.94271002e-02 1.68931298e-02
      1.60484742e-02 1.54853696e-02 1.49222650e-02 1.40776085e-02
      1.35145038e-02 1.26698473e-02 1.15436390e-02 1.04174307e-02
      9.00966953e-03 7.88346119e-03 6.75725192e-03 6.19414775e-03
      6.19414775e-03 6.19414775e-03 6.33492395e-02 6.33492395e-02
      6.33492395e-02 6.16599247e-02 5.82812987e-02 5.49026728e-02
      5.15240468e-02 4.81454208e-02 4.50483486e-02 4.11066189e-02
      3.68833356e-02 3.23784985e-02 2.81552169e-02 2.36503817e-02
      1.94271002e-02 1.68931298e-02 1.63300261e-02 1.54853696e-02
      1.49222650e-02 1.43591613e-02 1.37960566e-02 1.29514001e-02
      1.18251909e-02 1.04174307e-02 9.29122139e-03 8.16501305e-03
      7.03880424e-03 6.47570007e-03 6.47570007e-03 6.47570007e-03
      6.30676895e-02 6.30676895e-02 6.30676895e-02 6.13783747e-02
      5.79997487e-02 5.46211228e-02 5.12424968e-02 4.78638709e-02
      4.44852449e-02 4.08250652e-02 3.63202319e-02 3.20969485e-02
      2.78736651e-02 2.36503817e-02 1.94271002e-02 1.71746816e-02
      1.63300261e-02 1.57669224e-02 1.52038177e-02 1.46407131e-02
      1.40776085e-02 1.32329520e-02 1.21067436e-02 1.06989825e-02
      9.57277417e-03 8.44656490e-03 7.03880424e-03 6.47570007e-03
      6.47570007e-03 6.47570007e-03 6.27861321e-02 6.27861321e-02
      6.27861321e-02 6.10968210e-02 5.77181950e-02 5.43395691e-02
      5.09609431e-02 4.75823171e-02 4.42036912e-02 4.05435115e-02
      3.63202319e-02 3.20969485e-02 2.78736651e-02 2.36503817e-02
      1.94271002e-02 1.71746816e-02 1.66115779e-02 1.60484742e-02
      1.54853696e-02 1.49222650e-02 1.43591613e-02 1.35145038e-02
      1.23882955e-02 1.09805344e-02 9.85432602e-03 8.72811768e-03
      7.32035656e-03 6.75725192e-03 6.75725192e-03 6.75725192e-03
      6.27861321e-02 6.27861321e-02 6.27861321e-02 6.10968210e-02
      5.71550913e-02 5.34949116e-02 4.98347357e-02 4.61745560e-02
      4.25143763e-02 3.85726467e-02 3.46309170e-02 3.06891873e-02
      2.67474558e-02 2.28057262e-02 1.88639965e-02 1.66115779e-02
      1.60484742e-02 1.57669224e-02 1.52038177e-02 1.46407131e-02
      1.43591613e-02 1.35145038e-02 1.21067436e-02 1.09805344e-02
      9.85432602e-03 8.44656490e-03 7.32035656e-03 6.75725192e-03
      6.75725192e-03 6.75725192e-03 6.27861321e-02 6.27861321e-02
      6.27861321e-02 6.08152710e-02 5.68735376e-02 5.26502579e-02
      4.87085246e-02 4.44852449e-02 4.05435115e-02 3.66017818e-02
      3.29416059e-02 2.92814262e-02 2.53396947e-02 2.16795169e-02
      1.80193391e-02 1.60484742e-02 1.54853696e-02 1.52038177e-02
      1.49222650e-02 1.46407131e-02 1.40776085e-02 1.32329520e-02
      1.21067436e-02 1.09805344e-02 9.85432602e-03 8.44656490e-03
      7.32035656e-03 6.75725192e-03 6.75725192e-03 6.75725192e-03
      6.27861321e-02 6.27861321e-02 6.27861321e-02 6.08152710e-02
      5.63104339e-02 5.18056005e-02 4.75823171e-02 4.30774838e-02
      3.88542004e-02 3.49124707e-02 3.12522911e-02 2.78736651e-02
      2.42134873e-02 2.08348613e-02 1.74562354e-02 1.54853696e-02
      1.52038177e-02 1.49222650e-02 1.46407131e-02 1.43591613e-02
      1.40776085e-02 1.32329520e-02 1.21067436e-02 1.09805344e-02
      9.57277417e-03 8.44656490e-03 7.32035656e-03 6.75725192e-03
      6.75725192e-03 6.75725192e-03 6.30676895e-02 6.30676895e-02
      6.30676895e-02 6.05337173e-02 5.60288839e-02 5.12424968e-02
      4.64561097e-02 4.16697226e-02 3.68833356e-02 3.29416059e-02
      2.98445299e-02 2.64659040e-02 2.30872780e-02 1.99902039e-02
      1.66115779e-02 1.49222650e-02 1.46407131e-02 1.43591613e-02
      1.43591613e-02 1.40776085e-02 1.37960566e-02 1.32329520e-02
      1.21067436e-02 1.09805344e-02 9.57277417e-03 8.44656490e-03
      7.32035656e-03 6.75725192e-03 6.75725192e-03 6.75725192e-03
      6.30676895e-02 6.30676895e-02 6.30676895e-02 6.05337173e-02
      5.54657765e-02 5.03978394e-02 4.53298986e-02 4.02619615e-02
      3.51940207e-02 3.12522911e-02 2.81552169e-02 2.50581428e-02
      2.19610687e-02 1.88639965e-02 1.57669224e-02 1.43591613e-02
      1.43591613e-02 1.40776085e-02 1.40776085e-02 1.40776085e-02
      1.37960566e-02 1.32329520e-02 1.21067436e-02 1.09805344e-02
      9.57277417e-03 8.44656490e-03 7.32035656e-03 6.75725192e-03
      6.75725192e-03 6.75725192e-03 6.25045821e-02 6.25045821e-02
      6.25045821e-02 5.99706136e-02 5.46211228e-02 4.92716320e-02
      4.39221375e-02 3.88542004e-02 3.35047096e-02 2.92814262e-02
      2.64659040e-02 2.36503817e-02 2.08348613e-02 1.80193391e-02
      1.52038177e-02 1.35145038e-02 1.35145038e-02 1.35145038e-02
      1.32329520e-02 1.32329520e-02 1.32329520e-02 1.23882955e-02
      1.12620872e-02 1.01358779e-02 9.00966953e-03 7.88346119e-03
      6.75725192e-03 6.19414775e-03 6.19414775e-03 6.19414775e-03
      6.22230284e-02 6.22230284e-02 6.22230284e-02 5.94075099e-02
      5.37764654e-02 4.84269746e-02 4.27959301e-02 3.74464393e-02
      3.18153948e-02 2.75921132e-02 2.50581428e-02 2.22426224e-02
      1.97086520e-02 1.68931298e-02 1.43591613e-02 1.29514001e-02
      1.29514001e-02 1.26698473e-02 1.26698473e-02 1.23882955e-02
      1.23882955e-02 1.18251909e-02 1.06989825e-02 9.57277417e-03
      8.44656490e-03 7.32035656e-03 6.19414775e-03 5.63104358e-03
      5.63104358e-03 5.63104358e-03 6.19414784e-02 6.19414784e-02
      6.19414784e-02 5.88444024e-02 5.32133617e-02 4.73007634e-02
      4.16697226e-02 3.57571244e-02 3.01260818e-02 2.59028003e-02
      2.33688299e-02 2.11164132e-02 1.85824428e-02 1.60484742e-02
      1.35145038e-02 1.21067436e-02 1.21067436e-02 1.21067436e-02
      1.18251909e-02 1.18251909e-02 1.15436390e-02 1.09805344e-02
      9.85432602e-03 9.00966953e-03 7.88346119e-03 6.75725192e-03
      5.63104358e-03 5.34949126e-03 5.34949126e-03 5.34949126e-03
      6.13783747e-02 6.13783747e-02 6.13783747e-02 5.85628524e-02
      5.23687042e-02 4.64561097e-02 4.02619615e-02 3.43493633e-02
      2.84367688e-02 2.42134873e-02 2.19610687e-02 1.97086520e-02
      1.74562354e-02 1.49222650e-02 1.26698473e-02 1.15436390e-02
      1.15436390e-02 1.12620872e-02 1.12620872e-02 1.09805344e-02
      1.09805344e-02 1.04174307e-02 9.29122139e-03 8.16501305e-03
      7.32035656e-03 6.19414775e-03 5.06793894e-03 4.78638709e-03
      4.78638709e-03 4.78638709e-03 6.10968210e-02 6.10968210e-02
      6.10968210e-02 5.79997487e-02 5.18056005e-02 4.56114523e-02
      3.91357504e-02 3.29416059e-02 2.67474558e-02 2.25241743e-02
      2.05533095e-02 1.83008909e-02 1.63300261e-02 1.40776085e-02
      1.21067436e-02 1.09805344e-02 1.06989825e-02 1.06989825e-02
      1.04174307e-02 1.04174307e-02 1.01358779e-02 9.57277417e-03
      8.72811768e-03 7.60190887e-03 6.75725192e-03 5.63104358e-03
      4.78638709e-03 4.22328245e-03 4.22328245e-03 4.22328245e-03
      6.10968210e-02 6.10968210e-02 6.10968210e-02 5.79997487e-02
      5.18056005e-02 4.53298986e-02 3.91357504e-02 3.29416059e-02
      2.67474558e-02 2.25241743e-02 2.05533095e-02 1.83008909e-02
      1.63300261e-02 1.40776085e-02 1.21067436e-02 1.09805344e-02
      1.06989825e-02 1.06989825e-02 1.04174307e-02 1.04174307e-02
      1.01358779e-02 9.57277417e-03 8.72811768e-03 7.60190887e-03
      6.75725192e-03 5.63104358e-03 4.78638709e-03 4.22328245e-03
      4.22328245e-03 4.22328245e-03 6.10968210e-02 6.10968210e-02
      6.10968210e-02 5.79997487e-02 5.18056005e-02 4.53298986e-02
      3.91357504e-02 3.29416059e-02 2.67474558e-02 2.25241743e-02
      2.05533095e-02 1.83008909e-02 1.63300261e-02 1.40776085e-02
      1.21067436e-02 1.06989825e-02 1.06989825e-02 1.06989825e-02
      1.04174307e-02 1.04174307e-02 1.01358779e-02 9.57277417e-03
      8.72811768e-03 7.60190887e-03 6.47570007e-03 5.63104358e-03
      4.78638709e-03 4.22328245e-03 4.22328245e-03 4.22328245e-03</_>
    <_>
      6.14301115e-02 6.14301115e-02 6.14301115e-02 5.92020750e-02
      5.47460057e-02 5.02899326e-02 4.58338633e-02 4.13777940e-02
      3.69217247e-02 3.31022367e-02 2.96010375e-02 2.64181308e-02
      2.32352223e-02 1.97340250e-02 1.65511183e-02 1.46413734e-02
      1.43230828e-02 1.36865014e-02 1.33682108e-02 1.30499201e-02
      1.27316285e-02 1.17767565e-02 1.08218845e-02 9.86701250e-03
      8.59384984e-03 7.63897737e-03 6.68410538e-03 6.04752358e-03
      6.04752358e-03 6.04752358e-03 6.14301115e-02 6.14301115e-02
      6.14301115e-02 5.92020750e-02 5.47460057e-02 5.02899326e-02
      4.58338633e-02 4.13777940e-02 3.69217247e-02 3.31022367e-02
      2.96010375e-02 2.64181308e-02 2.32352223e-02 1.97340250e-02
      1.65511183e-02 1.46413734e-02 1.43230828e-02 1.36865014e-02
      1.33682108e-02 1.30499201e-02 1.24133378e-02 1.17767565e-02
      1.08218845e-02 9.86701250e-03 8.59384984e-03 7.63897737e-03
      6.68410538e-03 6.04752358e-03 6.04752358e-03 6.04752358e-03
      6.14301115e-02 6.14301115e-02 6.14301115e-02 5.92020750e-02
      5.47460057e-02 5.02899326e-02 4.58338633e-02 4.13777940e-02
      3.69217247e-02 3.31022367e-02 2.99193282e-02 2.64181308e-02
      2.32352223e-02 2.00523157e-02 1.65511183e-02 1.46413734e-02
      1.43230828e-02 1.40047921e-02 1.33682108e-02 1.30499201e-02
      1.27316285e-02 1.17767565e-02 1.08218845e-02 9.86701250e-03
      8.59384984e-03 7.63897737e-03 6.68410538e-03 6.04752358e-03
      6.04752358e-03 6.04752358e-03 6.33398518e-02 6.33398518e-02
      6.33398518e-02 6.11118190e-02 5.66557497e-02 5.18813878e-02
      4.74253185e-02 4.29692492e-02 3.85131761e-02 3.43753994e-02
      3.08742002e-02 2.73730028e-02 2.38718037e-02 2.03706063e-02
      1.68694090e-02 1.49596641e-02 1.46413734e-02 1.40047921e-02
      1.36865014e-02 1.33682108e-02 1.27316285e-02 1.20950472e-02
      1.08218845e-02 9.86701250e-03 8.59384984e-03 7.63897737e-03
      6.68410538e-03 6.04752358e-03 6.04752358e-03 6.04752358e-03
      6.52495995e-02 6.52495995e-02 6.52495995e-02 6.30215630e-02
      5.82472011e-02 5.37911318e-02 4.90167700e-02 4.45607007e-02
      3.97863388e-02 3.56485620e-02 3.18290740e-02 2.83278748e-02
      2.45083850e-02 2.10071877e-02 1.71876997e-02 1.52779547e-02
      1.46413734e-02 1.43230828e-02 1.40047921e-02 1.33682108e-02
      1.30499201e-02 1.20950472e-02 1.11401752e-02 9.86701250e-03
      8.59384984e-03 7.63897737e-03 6.36581425e-03 5.72923291e-03
      5.72923291e-03 5.72923291e-03 6.71593398e-02 6.71593398e-02
      6.71593398e-02 6.46130145e-02 6.01569451e-02 5.53825870e-02
      5.06082252e-02 4.58338633e-02 4.10595052e-02 3.69217247e-02
      3.31022367e-02 2.92827468e-02 2.54632570e-02 2.13254783e-02
      1.75059903e-02 1.55962454e-02 1.49596641e-02 1.46413734e-02
      1.40047921e-02 1.36865014e-02 1.30499201e-02 1.24133378e-02
      1.11401752e-02 9.86701250e-03 8.91214050e-03 7.63897737e-03
      6.36581425e-03 5.72923291e-03 5.72923291e-03 5.72923291e-03
      6.90690875e-02 6.90690875e-02 6.90690875e-02 6.65227622e-02
      6.17484003e-02 5.69740385e-02 5.21996804e-02 4.74253185e-02
      4.26509567e-02 3.81948873e-02 3.40571068e-02 3.02376188e-02
      2.60998402e-02 2.19620597e-02 1.78242810e-02 1.55962454e-02
      1.52779547e-02 1.46413734e-02 1.43230828e-02 1.36865014e-02
      1.33682108e-02 1.24133378e-02 1.14584658e-02 1.01853032e-02
      8.91214050e-03 7.63897737e-03 6.36581425e-03 5.72923291e-03
      5.72923291e-03 5.72923291e-03 7.09788278e-02 7.09788278e-02
      7.09788278e-02 6.84325024e-02 6.36581481e-02 5.88837825e-02
      5.37911318e-02 4.90167700e-02 4.42424119e-02 3.94680500e-02
      3.53302695e-02 3.11924908e-02 2.67364215e-02 2.25986410e-02
      1.84608623e-02 1.59145370e-02 1.55962454e-02 1.49596641e-02
      1.46413734e-02 1.40047921e-02 1.36865014e-02 1.27316285e-02
      1.14584658e-02 1.01853032e-02 8.91214050e-03 7.63897737e-03
      6.36581425e-03 5.72923291e-03 5.72923291e-03 5.72923291e-03
      7.09788278e-02 7.09788278e-02 7.09788278e-02 6.84325024e-02
      6.36581481e-02 5.88837825e-02 5.37911318e-02 4.90167700e-02
      4.42424119e-02 3.94680500e-02 3.53302695e-02 3.11924908e-02
      2.67364215e-02 2.25986410e-02 1.84608623e-02 1.59145370e-02
      1.55962454e-02 1.49596641e-02 1.46413734e-02 1.43230828e-02
      1.36865014e-02 1.27316285e-02 1.17767565e-02 1.05035938e-02
      9.23043117e-03 7.95726851e-03 6.68410538e-03 6.04752358e-03
      6.04752358e-03 6.04752358e-03 7.12971240e-02 7.12971240e-02
      7.12971240e-02 6.87507987e-02 6.39764369e-02 5.88837825e-02
      5.41094244e-02 4.90167700e-02 4.42424119e-02 3.97863388e-02
      3.53302695e-02 3.11924908e-02 2.67364215e-02 2.25986410e-02
      1.84608623e-02 1.59145370e-02 1.55962454e-02 1.52779547e-02
      1.46413734e-02 1.43230828e-02 1.40047921e-02 1.30499201e-02
      1.17767565e-02 1.05035938e-02 9.23043117e-03 7.95726851e-03
      7.00239604e-03 6.36581425e-03 6.36581425e-03 6.36581425e-03
      7.12971240e-02 7.12971240e-02 7.12971240e-02 6.87507987e-02
      6.39764369e-02 5.92020750e-02 5.41094244e-02 4.93350625e-02
      4.42424119e-02 3.97863388e-02 3.53302695e-02 3.11924908e-02
      2.67364215e-02 2.25986410e-02 1.84608623e-02 1.59145370e-02
      1.55962454e-02 1.52779547e-02 1.49596641e-02 1.43230828e-02
      1.40047921e-02 1.33682108e-02 1.20950472e-02 1.08218845e-02
      9.54872184e-03 8.27555917e-03 7.00239604e-03 6.36581425e-03
      6.36581425e-03 6.36581425e-03 7.12971240e-02 7.12971240e-02
      7.12971240e-02 6.90690875e-02 6.39764369e-02 5.92020750e-02
      5.41094244e-02 4.93350625e-02 4.45607007e-02 3.97863388e-02
      3.53302695e-02 3.11924908e-02 2.70547122e-02 2.25986410e-02
      1.84608623e-02 1.59145370e-02 1.55962454e-02 1.52779547e-02
      1.49596641e-02 1.46413734e-02 1.43230828e-02 1.33682108e-02
      1.20950472e-02 1.11401752e-02 9.86701250e-03 8.59384984e-03
      7.32068671e-03 6.68410538e-03 6.68410538e-03 6.68410538e-03
      7.16154128e-02 7.16154128e-02 7.16154128e-02 6.90690875e-02
      6.42947257e-02 5.92020750e-02 5.44277132e-02 4.93350625e-02
      4.45607007e-02 3.97863388e-02 3.56485620e-02 3.11924908e-02
      2.70547122e-02 2.25986410e-02 1.84608623e-02 1.59145370e-02
      1.59145370e-02 1.55962454e-02 1.49596641e-02 1.49596641e-02
      1.46413734e-02 1.36865014e-02 1.24133378e-02 1.11401752e-02
      1.01853032e-02 8.91214050e-03 7.63897737e-03 7.00239604e-03
      7.00239604e-03 7.00239604e-03 7.09788278e-02 7.09788278e-02
      7.09788278e-02 6.84325024e-02 6.33398518e-02 5.79289123e-02
      5.28362617e-02 4.77436073e-02 4.26509567e-02 3.78765948e-02
      3.40571068e-02 2.99193282e-02 2.57815495e-02 2.16437690e-02
      1.75059903e-02 1.55962454e-02 1.52779547e-02 1.49596641e-02
      1.43230828e-02 1.40047921e-02 1.36865014e-02 1.30499201e-02
      1.20950472e-02 1.08218845e-02 9.86701250e-03 8.59384984e-03
      7.63897737e-03 7.00239604e-03 7.00239604e-03 7.00239604e-03
      7.03422502e-02 7.03422502e-02 7.03422502e-02 6.74776360e-02
      6.23849817e-02 5.69740385e-02 5.15630990e-02 4.61521558e-02
      4.07412127e-02 3.59668508e-02 3.21473628e-02 2.83278748e-02
      2.45083850e-02 2.06888970e-02 1.68694090e-02 1.49596641e-02
      1.46413734e-02 1.43230828e-02 1.36865014e-02 1.33682108e-02
      1.30499201e-02 1.24133378e-02 1.14584658e-02 1.05035938e-02
      9.54872184e-03 8.59384984e-03 7.63897737e-03 7.00239604e-03
      7.00239604e-03 7.00239604e-03 6.97056651e-02 6.97056651e-02
      6.97056651e-02 6.68410510e-02 6.11118190e-02 5.57008758e-02
      4.99716438e-02 4.45607007e-02 3.88314687e-02 3.43753994e-02
      3.05559095e-02 2.70547122e-02 2.35535130e-02 1.97340250e-02
      1.62328277e-02 1.43230828e-02 1.40047921e-02 1.36865014e-02
      1.33682108e-02 1.30499201e-02 1.24133378e-02 1.17767565e-02
      1.11401752e-02 1.01853032e-02 9.23043117e-03 8.59384984e-03
      7.63897737e-03 7.32068671e-03 7.32068671e-03 7.32068671e-03
      6.90690875e-02 6.90690875e-02 6.90690875e-02 6.62044734e-02
      6.01569451e-02 5.44277132e-02 4.86984812e-02 4.29692492e-02
      3.69217247e-02 3.24656554e-02 2.89644562e-02 2.57815495e-02
      2.22803503e-02 1.90974437e-02 1.55962454e-02 1.36865014e-02
      1.33682108e-02 1.30499201e-02 1.27316285e-02 1.24133378e-02
      1.17767565e-02 1.14584658e-02 1.05035938e-02 9.86701250e-03
      9.23043117e-03 8.27555917e-03 7.63897737e-03 7.32068671e-03
      7.32068671e-03 7.32068671e-03 6.84325024e-02 6.84325024e-02
      6.84325024e-02 6.52495995e-02 5.95203638e-02 5.34728430e-02
      4.71070260e-02 4.13777940e-02 3.53302695e-02 3.05559095e-02
      2.73730028e-02 2.41900943e-02 2.13254783e-02 1.81425717e-02
      1.49596641e-02 1.30499201e-02 1.27316285e-02 1.24133378e-02
      1.20950472e-02 1.17767565e-02 1.14584658e-02 1.08218845e-02
      1.01853032e-02 9.54872184e-03 8.91214050e-03 8.27555917e-03
      7.63897737e-03 7.32068671e-03 7.32068671e-03 7.32068671e-03
      6.74776360e-02 6.74776360e-02 6.74776360e-02 6.42947257e-02
      5.82472011e-02 5.18813878e-02 4.58338633e-02 3.97863388e-02
      3.37388180e-02 2.89644562e-02 2.60998402e-02 2.32352223e-02
      2.03706063e-02 1.75059903e-02 1.46413734e-02 1.30499201e-02
      1.27316285e-02 1.24133378e-02 1.20950472e-02 1.14584658e-02
      1.11401752e-02 1.08218845e-02 1.01853032e-02 9.54872184e-03
      8.91214050e-03 8.27555917e-03 7.32068671e-03 7.00239604e-03
      7.00239604e-03 7.00239604e-03 6.65227622e-02 6.65227622e-02
      6.65227622e-02 6.33398518e-02 5.69740385e-02 5.09265140e-02
      4.45607007e-02 3.81948873e-02 3.21473628e-02 2.76912935e-02
      2.48266757e-02 2.22803503e-02 1.97340250e-02 1.68694090e-02
      1.43230828e-02 1.27316285e-02 1.24133378e-02 1.20950472e-02
      1.17767565e-02 1.14584658e-02 1.11401752e-02 1.08218845e-02
      9.86701250e-03 9.23043117e-03 8.59384984e-03 7.95726851e-03
      7.32068671e-03 7.00239604e-03 7.00239604e-03 7.00239604e-03
      6.52495995e-02 6.52495995e-02 6.52495995e-02 6.20666929e-02
      5.57008758e-02 4.93350625e-02 4.32875380e-02 3.69217247e-02
      3.05559095e-02 2.60998402e-02 2.35535130e-02 2.13254783e-02
      1.87791530e-02 1.62328277e-02 1.40047921e-02 1.27316285e-02
      1.24133378e-02 1.20950472e-02 1.17767565e-02 1.14584658e-02
      1.11401752e-02 1.08218845e-02 1.01853032e-02 9.23043117e-03
      8.59384984e-03 7.95726851e-03 7.00239604e-03 6.68410538e-03
      6.68410538e-03 6.68410538e-03 6.42947257e-02 6.42947257e-02
      6.42947257e-02 6.11118190e-02 5.47460057e-02 4.83801886e-02
      4.16960865e-02 3.53302695e-02 2.89644562e-02 2.45083850e-02
      2.25986410e-02 2.03706063e-02 1.81425717e-02 1.59145370e-02
      1.36865014e-02 1.24133378e-02 1.20950472e-02 1.20950472e-02
      1.17767565e-02 1.14584658e-02 1.11401752e-02 1.08218845e-02
      9.86701250e-03 9.23043117e-03 8.27555917e-03 7.63897737e-03
      7.00239604e-03 6.36581425e-03 6.36581425e-03 6.36581425e-03
      6.33398518e-02 6.33398518e-02 6.33398518e-02 6.01569451e-02
      5.34728430e-02 4.71070260e-02 4.04229201e-02 3.40571068e-02
      2.73730028e-02 2.32352223e-02 2.13254783e-02 1.94157343e-02
      1.71876997e-02 1.52779547e-02 1.33682108e-02 1.24133378e-02
      1.20950472e-02 1.17767565e-02 1.17767565e-02 1.14584658e-02
      1.11401752e-02 1.08218845e-02 9.86701250e-03 9.23043117e-03
      8.27555917e-03 7.63897737e-03 6.68410538e-03 6.36581425e-03
      6.36581425e-03 6.36581425e-03 6.23849817e-02 6.23849817e-02
      6.23849817e-02 5.92020750e-02 5.25179692e-02 4.58338633e-02
      3.91497575e-02 3.24656554e-02 2.57815495e-02 2.16437690e-02
      2.00523157e-02 1.81425717e-02 1.65511183e-02 1.46413734e-02
      1.30499201e-02 1.20950472e-02 1.17767565e-02 1.14584658e-02
      1.14584658e-02 1.11401752e-02 1.08218845e-02 1.01853032e-02
      9.54872184e-03 8.59384984e-03 7.95726851e-03 7.00239604e-03
      6.36581425e-03 6.04752358e-03 6.04752358e-03 6.04752358e-03
      6.17484003e-02 6.17484003e-02 6.17484003e-02 5.82472011e-02
      5.15630990e-02 4.48789932e-02 3.78765948e-02 3.11924908e-02
      2.45083850e-02 2.03706063e-02 1.87791530e-02 1.71876997e-02
      1.55962454e-02 1.40047921e-02 1.27316285e-02 1.17767565e-02
      1.14584658e-02 1.11401752e-02 1.11401752e-02 1.08218845e-02
      1.05035938e-02 9.86701250e-03 9.23043117e-03 8.59384984e-03
      7.63897737e-03 7.00239604e-03 6.04752358e-03 5.72923291e-03
      5.72923291e-03 5.72923291e-03 6.07935265e-02 6.07935265e-02
      6.07935265e-02 5.72923310e-02 5.06082252e-02 4.36058305e-02
      3.66034321e-02 2.99193282e-02 2.29169317e-02 1.87791530e-02
      1.75059903e-02 1.62328277e-02 1.49596641e-02 1.36865014e-02
      1.24133378e-02 1.14584658e-02 1.11401752e-02 1.08218845e-02
      1.05035938e-02 1.05035938e-02 1.01853032e-02 9.54872184e-03
      8.91214050e-03 7.95726851e-03 7.32068671e-03 6.36581425e-03
      5.72923291e-03 5.41094225e-03 5.41094225e-03 5.41094225e-03
      6.01569451e-02 6.01569451e-02 6.01569451e-02 5.66557497e-02
      4.93350625e-02 4.26509567e-02 3.53302695e-02 2.86461655e-02
      2.16437690e-02 1.75059903e-02 1.62328277e-02 1.52779547e-02
      1.40047921e-02 1.30499201e-02 1.17767565e-02 1.11401752e-02
      1.08218845e-02 1.05035938e-02 1.01853032e-02 9.86701250e-03
      9.86701250e-03 9.23043117e-03 8.59384984e-03 7.63897737e-03
      7.00239604e-03 6.36581425e-03 5.41094225e-03 5.09265158e-03
      5.09265158e-03 5.09265158e-03 5.92020750e-02 5.92020750e-02
      5.92020750e-02 5.57008758e-02 4.86984812e-02 4.13777940e-02
      3.43753994e-02 2.73730028e-02 2.00523157e-02 1.62328277e-02
      1.52779547e-02 1.43230828e-02 1.33682108e-02 1.24133378e-02
      1.14584658e-02 1.08218845e-02 1.08218845e-02 1.05035938e-02
      9.86701250e-03 9.86701250e-03 9.54872184e-03 8.91214050e-03
      8.27555917e-03 7.32068671e-03 6.68410538e-03 6.04752358e-03
      5.09265158e-03 4.77436092e-03 4.77436092e-03 4.77436092e-03
      5.92020750e-02 5.92020750e-02 5.92020750e-02 5.57008758e-02
      4.83801886e-02 4.13777940e-02 3.43753994e-02 2.70547122e-02
      2.00523157e-02 1.59145370e-02 1.52779547e-02 1.43230828e-02
      1.33682108e-02 1.24133378e-02 1.14584658e-02 1.08218845e-02
      1.05035938e-02 1.01853032e-02 9.86701250e-03 9.54872184e-03
      9.23043117e-03 8.91214050e-03 7.95726851e-03 7.32068671e-03
      6.68410538e-03 5.72923291e-03 5.09265158e-03 4.77436092e-03
      4.77436092e-03 4.77436092e-03 5.92020750e-02 5.92020750e-02
      5.92020750e-02 5.57008758e-02 4.83801886e-02 4.13777940e-02
      3.43753994e-02 2.70547122e-02 2.00523157e-02 1.59145370e-02
      1.52779547e-02 1.43230828e-02 1.33682108e-02 1.24133378e-02
      1.14584658e-02 1.08218845e-02 1.05035938e-02 1.01853032e-02
      9.86701250e-03 9.54872184e-03 9.23043117e-03 8.91214050e-03
      7.95726851e-03 7.32068671e-03 6.68410538e-03 5.72923291e-03
      5.09265158e-03 4.77436092e-03 4.77436092e-03 4.77436092e-03</_>
    <_>
      0. 0. 0. 0. 2.63679540e-04 2.63679540e-04 0. 0. 0. 0. 0. 0. 0. 0.
      0. 0. 0. 0. 0. 0. 0. 2.63679540e-04 2.63679540e-04 0. 0. 0. 0. 0.
      0. 0. 0. 0. 0. 0. 2.63679540e-04 2.63679540e-04 2.63679540e-04
      2.63679540e-04 2.63679540e-04 2.63679540e-04 0. 0. 0. 0. 0. 0.
      2.63679540e-04 0. 0. 0. 0. 2.63679540e-04 2.63679540e-04 0. 0. 0.
      0. 0. 0. 0. 0. 0. 0. 0. 2.63679540e-04 2.63679540e-04
      2.63679540e-04 2.63679540e-04 2.63679540e-04 2.63679540e-04 0. 0.
      0. 0. 0. 0. 2.63679540e-04 0. 0. 0. 0. 2.63679540e-04
      2.63679540e-04 0. 0. 0. 0. 0. 0. 0. 0. 0. 0. 0. 2.63679540e-04
      2.63679540e-04 2.63679540e-04 2.63679540e-04 2.63679540e-04
      2.63679540e-04 0. 0. 0. 0. 0. 0. 0. 0. 2.63679540e-04 0. 0.
      2.63679540e-04 2.63679540e-04 0. 0. 2.63679540e-04 2.63679540e-04
      0. 0. 0. 0. 0. 0. 0. 2.63679540e-04 2.63679540e-04 2.63679540e-04
      2.63679540e-04 2.63679540e-04 1.05471816e-03 2.10943632e-03
      4.21887264e-03 4.74623172e-03 6.06462918e-03 5.53727057e-03
      3.42783402e-03 1.58207724e-03 1.05471816e-03 1.05471816e-03 0. 0.
      2.63679540e-04 2.63679540e-04 0. 0. 2.63679540e-04 2.63679540e-04
      0. 0. 0. 2.63679540e-04 2.63679540e-04 2.63679540e-04
      2.63679540e-04 5.27359080e-04 1.84575678e-03 1.05471816e-03
      8.17406550e-03 7.91038573e-03 1.31839775e-02 1.55570926e-02
      1.50297340e-02 1.47660542e-02 1.23929381e-02 1.10745411e-02
      8.70142505e-03 7.11934734e-03 1.00198220e-02 1.00198220e-02
      2.37311586e-03 5.27359080e-04 5.27359080e-04 5.27359080e-04
      5.27359080e-04 5.27359080e-04 2.63679540e-04 2.63679540e-04 0. 0.
      0. 2.63679540e-04 2.63679540e-04 2.63679540e-04 2.63679540e-04
      5.27359080e-04 2.97957882e-02 6.59198873e-03 1.10745411e-02
      2.05670036e-02 2.03033239e-02 1.95122864e-02 1.84575673e-02
      1.76665299e-02 1.37113361e-02 1.16018998e-02 1.18655795e-02
      1.05471816e-02 1.37113361e-02 1.74028501e-02 5.53727057e-03
      1.05471816e-03 1.84575678e-03 5.27359080e-04 5.27359080e-04
      5.27359080e-04 2.63679540e-04 2.63679540e-04 0. 0. 0.
      5.27359080e-03 3.95519286e-03 4.48255241e-03 2.90047494e-03
      2.90047494e-03 2.97957882e-02 8.17406550e-03 9.49246343e-03
      2.47858763e-02 2.61042751e-02 2.58405954e-02 2.50495560e-02
      2.66316328e-02 2.63679549e-02 2.66316328e-02 2.47858763e-02
      2.08306834e-02 1.89849269e-02 2.00396441e-02 8.70142505e-03
      3.69151356e-03 2.08306834e-02 2.63679540e-03 2.63679540e-04
      2.63679540e-04 5.27359080e-04 5.27359080e-04 2.63679540e-04
      2.63679540e-04 2.63679540e-04 5.00991102e-03 6.06462918e-03
      6.32830895e-03 5.00991102e-03 8.43774527e-03 1.81938875e-02
      1.81938875e-02 2.21490823e-02 2.61042751e-02 2.68953126e-02
      2.58405954e-02 2.68953126e-02 2.71589924e-02 2.71589924e-02
      2.71589924e-02 2.68953126e-02 2.79500317e-02 2.63679549e-02
      2.32037995e-02 1.79302096e-02 1.02835018e-02 2.97957882e-02
      4.21887264e-03 1.05471816e-03 7.91038619e-04 7.91038619e-04
      7.91038619e-04 2.63679540e-04 2.63679540e-04 2.63679540e-04
      1.31839770e-03 1.05471816e-03 5.27359080e-04 5.27359080e-04
      4.48255241e-03 1.21292584e-02 1.37113361e-02 2.03033239e-02
      2.26764400e-02 2.47858763e-02 2.55769156e-02 2.61042751e-02
      2.97957882e-02 4.00792882e-02 4.53528799e-02 4.56165597e-02
      4.37708050e-02 4.40344848e-02 2.97957882e-02 2.63679549e-02
      2.66316328e-02 2.16217227e-02 1.05471816e-02 7.38302711e-03
      6.06462918e-03 5.80094988e-03 2.63679540e-03 7.91038619e-04
      2.63679540e-04 2.63679540e-04 2.63679540e-04 2.63679540e-04
      2.63679540e-04 2.63679540e-04 5.27359080e-04 5.27359080e-04
      4.21887264e-03 7.64670689e-03 1.08108614e-02 1.60844512e-02
      2.76863519e-02 4.66712788e-02 5.61637431e-02 6.27557337e-02
      6.61835670e-02 6.61835670e-02 6.59198835e-02 6.61835670e-02
      6.40741289e-02 4.61439192e-02 3.66514549e-02 2.29401197e-02
      1.26566179e-02 9.22878366e-03 8.17406550e-03 3.42783402e-03
      3.95519286e-03 2.63679540e-03 7.91038619e-04 2.63679540e-04
      2.63679540e-04 2.63679540e-04 2.63679540e-04 2.63679540e-04
      2.63679540e-04 2.63679540e-04 1.31839770e-03 5.80094988e-03
      9.49246343e-03 2.90047489e-02 5.06264716e-02 6.01189360e-02
      6.56562075e-02 6.64472431e-02 6.69746026e-02 6.67109266e-02
      6.67109266e-02 6.67109266e-02 6.69746026e-02 6.24920502e-02
      5.03627919e-02 3.95519324e-02 2.03033239e-02 1.02835018e-02
      8.17406550e-03 6.06462918e-03 4.48255241e-03 7.91038619e-04
      5.27359080e-04 2.63679540e-04 2.63679540e-04 2.63679540e-04
      2.63679540e-04 2.63679540e-04 5.27359080e-04 5.27359080e-04
      2.37311586e-03 6.59198873e-03 2.47858763e-02 5.35269454e-02
      6.43378049e-02 6.72382861e-02 6.72382861e-02 6.69746026e-02
      6.67109266e-02 6.69746026e-02 6.72382861e-02 6.69746026e-02
      6.67109266e-02 6.72382861e-02 6.69746026e-02 5.66911027e-02
      4.11340073e-02 1.05471816e-02 5.27359080e-03 2.37311586e-03
      1.84575678e-03 2.63679540e-04 2.63679540e-04 0. 2.63679540e-04
      2.63679540e-04 2.63679540e-04 2.63679540e-04 5.27359080e-04
      7.91038619e-04 4.21887264e-03 9.49246343e-03 4.82533574e-02
      5.90642169e-02 6.72382861e-02 6.72382861e-02 6.72382861e-02
      6.69746026e-02 6.67109266e-02 6.69746026e-02 6.72382861e-02
      6.69746026e-02 6.67109266e-02 6.69746026e-02 6.72382861e-02
      6.67109266e-02 5.85368574e-02 3.55967395e-02 7.64670689e-03
      2.90047494e-03 1.05471816e-03 2.63679540e-04 2.63679540e-04 0. 0.
      0. 2.63679540e-04 2.63679540e-04 2.63679540e-04 1.05471816e-03
      6.59198873e-03 2.79500317e-02 5.16811907e-02 6.11736551e-02
      6.67109266e-02 6.67109266e-02 6.69746026e-02 6.69746026e-02
      6.72382861e-02 6.69746026e-02 6.69746026e-02 6.69746026e-02
      6.72382861e-02 6.69746026e-02 6.69746026e-02 6.72382861e-02
      6.69746026e-02 5.56363836e-02 1.47660542e-02 4.74623172e-03
      1.84575678e-03 2.63679540e-04 2.63679540e-04 2.63679540e-04 0. 0.
      2.63679540e-04 2.63679540e-04 2.63679540e-04 2.37311586e-03
      6.85566803e-03 4.35071252e-02 5.43179847e-02 6.43378049e-02
      6.67109266e-02 6.67109266e-02 6.69746026e-02 6.69746026e-02
      6.72382861e-02 6.69746026e-02 6.69746026e-02 6.69746026e-02
      6.72382861e-02 6.69746026e-02 6.69746026e-02 6.72382861e-02
      6.72382861e-02 6.43378049e-02 4.19250466e-02 7.91038573e-03
      3.16415448e-03 2.63679540e-04 2.63679540e-04 2.63679540e-04
      2.63679540e-04 2.63679540e-04 2.63679540e-04 2.63679540e-04
      2.63679540e-04 2.37311586e-03 8.70142505e-03 4.45618406e-02
      5.48453443e-02 6.46014884e-02 6.69746026e-02 6.69746026e-02
      6.67109266e-02 6.69746026e-02 6.72382861e-02 6.69746026e-02
      6.67109266e-02 6.69746026e-02 6.72382861e-02 6.69746026e-02
      6.69746026e-02 6.67109266e-02 6.67109266e-02 6.67109266e-02
      5.56363836e-02 1.13382200e-02 4.48255241e-03 2.63679540e-04 0.
      2.63679540e-04 0. 0. 2.63679540e-04 2.63679540e-04 2.63679540e-04
      3.16415448e-03 8.17406550e-03 4.45618406e-02 5.56363836e-02
      6.46014884e-02 6.67109266e-02 6.67109266e-02 6.67109266e-02
      6.69746026e-02 6.72382861e-02 6.69746026e-02 6.67109266e-02
      6.69746026e-02 6.69746026e-02 6.69746026e-02 6.69746026e-02
      6.69746026e-02 6.69746026e-02 6.64472431e-02 6.01189360e-02
      1.42386947e-02 5.27359080e-03 2.63679540e-04 2.63679540e-04
      2.63679540e-04 0. 0. 2.63679540e-04 2.63679540e-04 2.63679540e-04
      3.16415448e-03 7.91038573e-03 4.00792882e-02 5.53727038e-02
      6.46014884e-02 6.67109266e-02 6.67109266e-02 6.67109266e-02
      6.69746026e-02 6.72382861e-02 6.69746026e-02 6.67109266e-02
      6.67109266e-02 6.69746026e-02 6.69746026e-02 6.69746026e-02
      6.72382861e-02 6.72382861e-02 6.61835670e-02 5.82731776e-02
      1.74028501e-02 5.53727057e-03 7.91038619e-04 2.63679540e-04
      2.63679540e-04 0. 0. 2.63679540e-04 2.63679540e-04 0.
      1.58207724e-03 6.06462918e-03 2.10943632e-02 4.93080728e-02
      6.11736551e-02 6.69746026e-02 6.69746026e-02 6.69746026e-02
      6.69746026e-02 6.72382861e-02 6.72382861e-02 6.72382861e-02
      6.72382861e-02 6.72382861e-02 6.72382861e-02 6.72382861e-02
      6.67109266e-02 6.67109266e-02 6.67109266e-02 5.93278967e-02
      1.52934138e-02 7.11934734e-03 2.63679540e-04 2.63679540e-04
      2.63679540e-04 0. 0. 2.63679540e-04 2.63679540e-04 0.
      1.84575678e-03 5.27359080e-03 1.13382200e-02 4.45618406e-02
      5.59000634e-02 6.69746026e-02 6.69746026e-02 6.69746026e-02
      6.69746026e-02 6.72382861e-02 6.72382861e-02 6.72382861e-02
      6.72382861e-02 6.72382861e-02 6.72382861e-02 6.72382861e-02
      6.67109266e-02 6.67109266e-02 6.67109266e-02 5.40543050e-02
      1.00198220e-02 4.74623172e-03 2.63679540e-04 0. 2.63679540e-04
      2.63679540e-04 2.63679540e-04 2.63679540e-04 2.63679540e-04
      2.63679540e-04 1.05471816e-03 3.69151356e-03 7.64670689e-03
      2.45221965e-02 5.24722300e-02 6.48651645e-02 6.72382861e-02
      6.72382861e-02 6.72382861e-02 6.69746026e-02 6.67109266e-02
      6.67109266e-02 6.67109266e-02 6.67109266e-02 6.67109266e-02
      6.67109266e-02 6.72382861e-02 6.72382861e-02 6.56562075e-02
      3.05868275e-02 8.17406550e-03 3.16415448e-03 0. 0. 2.63679540e-04
      2.63679540e-04 2.63679540e-04 2.63679540e-04 2.63679540e-04
      2.63679540e-04 2.63679540e-04 2.63679540e-03 5.27359080e-03
      1.08108614e-02 3.29599418e-02 5.51090240e-02 6.59198835e-02
      6.72382861e-02 6.69746026e-02 6.69746026e-02 6.67109266e-02
      6.67109266e-02 6.67109266e-02 6.67109266e-02 6.67109266e-02
      6.67109266e-02 6.72382861e-02 6.72382861e-02 5.72184585e-02
      1.00198220e-02 6.85566803e-03 2.90047494e-03 0. 0. 2.63679540e-04
      2.63679540e-04 2.63679540e-04 0. 0. 2.63679540e-04 2.63679540e-04
      1.58207724e-03 3.69151356e-03 5.53727057e-03 1.08108614e-02
      3.42783406e-02 5.06264716e-02 6.53925240e-02 6.69746026e-02
      6.69746026e-02 6.67109266e-02 6.67109266e-02 6.67109266e-02
      6.69746026e-02 6.67109266e-02 6.67109266e-02 6.72382861e-02
      6.22283705e-02 1.45023745e-02 8.17406550e-03 4.21887264e-03
      1.84575678e-03 2.63679540e-04 2.63679540e-04 2.63679540e-04
      2.63679540e-04 2.63679540e-04 0. 0. 2.63679540e-04 2.63679540e-04
      7.91038619e-04 7.91038619e-04 2.10943632e-03 4.21887264e-03
      1.16018998e-02 2.37311590e-02 4.32434455e-02 5.64274229e-02
      6.46014884e-02 6.61835670e-02 6.67109266e-02 6.67109266e-02
      6.67109266e-02 6.67109266e-02 6.53925240e-02 4.95717525e-02
      1.42386947e-02 8.17406550e-03 4.48255241e-03 2.63679540e-03
      1.31839770e-03 2.63679540e-04 2.63679540e-04 2.63679540e-04 0. 0.
      0. 0. 2.63679540e-04 2.63679540e-04 5.27359080e-04 5.27359080e-04
      5.27359080e-04 1.84575678e-03 2.90047494e-03 7.11934734e-03
      1.23929381e-02 2.45221965e-02 3.84972133e-02 5.37906252e-02
      5.80094978e-02 6.32830858e-02 6.11736551e-02 4.64075990e-02
      2.24127602e-02 1.05471816e-02 8.17406550e-03 2.90047494e-03
      1.05471816e-03 7.91038619e-04 7.91038619e-04 2.63679540e-04
      2.63679540e-04 2.63679540e-04 0. 0. 0. 0. 0. 0. 2.63679540e-04
      2.63679540e-04 5.27359080e-04 5.27359080e-04 7.91038619e-04
      2.10943632e-03 5.27359080e-03 7.64670689e-03 1.02835018e-02
      1.18655795e-02 1.37113361e-02 1.52934138e-02 1.29202977e-02
      9.22878366e-03 8.17406550e-03 4.48255241e-03 2.10943632e-03
      5.27359080e-04 5.27359080e-04 5.27359080e-04 5.27359080e-04
      2.63679540e-04 2.63679540e-04 0. 0. 0. 0. 0. 0. 0. 2.63679540e-04
      2.63679540e-04 5.27359080e-04 5.27359080e-04 5.27359080e-04
      7.91038619e-04 1.31839770e-03 2.37311586e-03 2.90047494e-03
      3.95519286e-03 5.53727057e-03 5.00991102e-03 4.74623172e-03
      3.42783402e-03 2.63679540e-03 7.91038619e-04 7.91038619e-04
      5.27359080e-04 5.27359080e-04 5.27359080e-04 5.27359080e-04
      2.63679540e-04 2.63679540e-04 0. 0. 0. 0. 0. 0. 0. 0. 0.
      2.63679540e-04 2.63679540e-04 2.63679540e-04 2.63679540e-04
      2.63679540e-04 2.63679540e-04 0. 0. 0. 0. 0. 2.63679540e-04 0.
      2.63679540e-04 2.63679540e-04 2.63679540e-04 2.63679540e-04
      2.63679540e-04 2.63679540e-04 0. 0. 0. 0. 0. 0. 0. 0. 0. 0. 0.
      2.63679540e-04 2.63679540e-04 2.63679540e-04 2.63679540e-04
      2.63679540e-04 0. 0. 0. 0. 0. 0. 0. 0. 2.63679540e-04
      2.63679540e-04 2.63679540e-04 2.63679540e-04 2.63679540e-04
      2.63679540e-04 0. 0. 0.</_>
    <_>
      1.44596603e-02 1.48934498e-02 1.47488536e-02 1.44596603e-02
      1.44596603e-02 1.51826432e-02 1.56164337e-02 1.59056261e-02
      1.56164337e-02 1.50380470e-02 1.60502233e-02 1.72069967e-02
      1.77853815e-02 1.80745758e-02 1.83637682e-02 1.82191730e-02
      1.83637682e-02 1.76407862e-02 1.54718366e-02 1.50380470e-02
      1.47488536e-02 1.41704669e-02 1.21461144e-02 1.22907115e-02
      1.64840128e-02 1.41704669e-02 7.80821685e-03 5.63926762e-03
      5.92846097e-03 4.19330131e-03 1.33028878e-02 1.41704669e-02
      1.43150641e-02 1.46042574e-02 1.50380470e-02 1.53272403e-02
      1.53272403e-02 1.57610290e-02 1.76407862e-02 2.12557018e-02
      2.40030363e-02 2.50152126e-02 2.60273889e-02 2.64611784e-02
      2.55935993e-02 2.47260202e-02 2.58827917e-02 2.67503727e-02
      2.67503727e-02 2.24124733e-02 1.74961891e-02 1.50380470e-02
      1.38812736e-02 1.38812736e-02 1.46042574e-02 1.20015182e-02
      8.24200641e-03 6.50684722e-03 6.79604057e-03 6.79604057e-03
      1.02663590e-02 1.18569219e-02 1.28690982e-02 1.41704669e-02
      1.44596603e-02 1.54718366e-02 1.80745758e-02 2.25570705e-02
      2.55935993e-02 2.66057756e-02 2.77625471e-02 2.92085148e-02
      3.02206911e-02 3.05098835e-02 2.99314968e-02 2.84855310e-02
      2.90639177e-02 3.02206911e-02 3.10882702e-02 2.99314968e-02
      2.68949680e-02 2.28462629e-02 1.72069967e-02 1.47488536e-02
      1.50380470e-02 1.24353077e-02 9.25418269e-03 7.08523346e-03
      6.94063678e-03 5.35007427e-03 6.79604057e-03 8.09741020e-03
      9.25418269e-03 1.27245011e-02 1.50380470e-02 2.08219104e-02
      2.54490022e-02 2.79071443e-02 3.05098835e-02 3.18112522e-02
      3.47031839e-02 3.60045545e-02 3.65829393e-02 3.67275365e-02
      3.64383459e-02 3.64383459e-02 3.61491516e-02 3.61491516e-02
      3.65829393e-02 3.61491516e-02 3.38356048e-02 2.92085148e-02
      2.57381964e-02 2.34246496e-02 2.15448942e-02 1.56164337e-02
      1.18569219e-02 8.24200641e-03 7.51902349e-03 5.35007427e-03
      6.07305719e-03 7.66362017e-03 9.25418269e-03 1.51826432e-02
      2.14002971e-02 2.63165813e-02 2.89193206e-02 3.16666551e-02
      3.26788314e-02 3.32572199e-02 3.52815725e-02 3.62937488e-02
      3.67275365e-02 3.67275365e-02 3.64383459e-02 3.64383459e-02
      3.62937488e-02 3.62937488e-02 3.65829393e-02 3.64383459e-02
      3.58599573e-02 3.32572199e-02 2.93531101e-02 2.66057756e-02
      2.38584392e-02 1.90867521e-02 1.46042574e-02 1.01217628e-02
      8.96498933e-03 6.07305719e-03 6.07305719e-03 7.95281306e-03
      1.22907115e-02 2.14002971e-02 2.73287576e-02 2.93531101e-02
      3.22450437e-02 3.48477811e-02 3.52815725e-02 3.57153602e-02
      3.64383459e-02 3.68721336e-02 3.68721336e-02 3.68721336e-02
      3.65829393e-02 3.65829393e-02 3.65829393e-02 3.65829393e-02
      3.67275365e-02 3.67275365e-02 3.67275365e-02 3.57153602e-02
      3.42693962e-02 3.09436731e-02 2.77625471e-02 2.55935993e-02
      2.15448942e-02 1.53272403e-02 1.11339381e-02 6.94063678e-03
      6.36225054e-03 1.11339381e-02 2.09665075e-02 2.77625471e-02
      3.13774645e-02 3.31126228e-02 3.42693962e-02 3.57153602e-02
      3.60045545e-02 3.61491516e-02 3.65829393e-02 3.67275365e-02
      3.67275365e-02 3.67275365e-02 3.67275365e-02 3.67275365e-02
      3.67275365e-02 3.67275365e-02 3.65829393e-02 3.65829393e-02
      3.65829393e-02 3.61491516e-02 3.54261696e-02 3.39802019e-02
      3.23896408e-02 2.96423044e-02 2.68949680e-02 2.14002971e-02
      1.22907115e-02 6.50684722e-03 7.66362017e-03 1.85083654e-02
      2.67503727e-02 3.12328674e-02 3.39802019e-02 3.65829393e-02
      3.67275365e-02 3.68721336e-02 3.68721336e-02 3.68721336e-02
      3.65829393e-02 3.64383459e-02 3.64383459e-02 3.64383459e-02
      3.68721336e-02 3.68721336e-02 3.68721336e-02 3.68721336e-02
      3.64383459e-02 3.64383459e-02 3.64383459e-02 3.65829393e-02
      3.68721336e-02 3.68721336e-02 3.67275365e-02 3.38356048e-02
      3.07990760e-02 2.71841623e-02 1.89421549e-02 7.66362017e-03
      1.28690982e-02 2.45814230e-02 2.90639177e-02 3.44139934e-02
      3.52815725e-02 3.67275365e-02 3.67275365e-02 3.68721336e-02
      3.68721336e-02 3.68721336e-02 3.65829393e-02 3.64383459e-02
      3.64383459e-02 3.64383459e-02 3.68721336e-02 3.68721336e-02
      3.68721336e-02 3.67275365e-02 3.64383459e-02 3.64383459e-02
      3.64383459e-02 3.65829393e-02 3.68721336e-02 3.68721336e-02
      3.68721336e-02 3.57153602e-02 3.49923782e-02 3.19558494e-02
      2.79071443e-02 1.66286100e-02 2.09665075e-02 2.71841623e-02
      3.12328674e-02 3.58599573e-02 3.61491516e-02 3.68721336e-02
      3.68721336e-02 3.68721336e-02 3.68721336e-02 3.68721336e-02
      3.65829393e-02 3.64383459e-02 3.64383459e-02 3.64383459e-02
      3.68721336e-02 3.68721336e-02 3.68721336e-02 3.67275365e-02
      3.64383459e-02 3.64383459e-02 3.64383459e-02 3.65829393e-02
      3.68721336e-02 3.68721336e-02 3.68721336e-02 3.68721336e-02
      3.68721336e-02 3.44139934e-02 3.23896408e-02 2.64611784e-02
      2.47260202e-02 2.81963386e-02 3.12328674e-02 3.62937488e-02
      3.64383459e-02 3.65829393e-02 3.67275365e-02 3.67275365e-02
      3.67275365e-02 3.67275365e-02 3.67275365e-02 3.67275365e-02
      3.67275365e-02 3.67275365e-02 3.67275365e-02 3.67275365e-02
      3.67275365e-02 3.67275365e-02 3.67275365e-02 3.67275365e-02
      3.67275365e-02 3.67275365e-02 3.67275365e-02 3.67275365e-02
      3.67275365e-02 3.68721336e-02 3.68721336e-02 3.61491516e-02
      3.58599573e-02 3.16666551e-02 2.54490022e-02 2.92085148e-02
      3.10882702e-02 3.65829393e-02 3.65829393e-02 3.65829393e-02
      3.65829393e-02 3.67275365e-02 3.67275365e-02 3.67275365e-02
      3.67275365e-02 3.68721336e-02 3.68721336e-02 3.68721336e-02
      3.67275365e-02 3.67275365e-02 3.67275365e-02 3.67275365e-02
      3.68721336e-02 3.68721336e-02 3.68721336e-02 3.67275365e-02
      3.67275365e-02 3.67275365e-02 3.67275365e-02 3.67275365e-02
      3.68721336e-02 3.68721336e-02 3.68721336e-02 3.34018171e-02
      2.60273889e-02 3.13774645e-02 3.23896408e-02 3.65829393e-02
      3.65829393e-02 3.65829393e-02 3.65829393e-02 3.67275365e-02
      3.67275365e-02 3.67275365e-02 3.68721336e-02 3.68721336e-02
      3.68721336e-02 3.68721336e-02 3.67275365e-02 3.67275365e-02
      3.67275365e-02 3.67275365e-02 3.68721336e-02 3.68721336e-02
      3.68721336e-02 3.67275365e-02 3.67275365e-02 3.67275365e-02
      3.67275365e-02 3.68721336e-02 3.68721336e-02 3.68721336e-02
      3.68721336e-02 3.58599573e-02 2.66057756e-02 3.18112522e-02
      3.26788314e-02 3.65829393e-02 3.65829393e-02 3.65829393e-02
      3.65829393e-02 3.67275365e-02 3.67275365e-02 3.67275365e-02
      3.67275365e-02 3.68721336e-02 3.68721336e-02 3.68721336e-02
      3.67275365e-02 3.67275365e-02 3.67275365e-02 3.67275365e-02
      3.68721336e-02 3.68721336e-02 3.68721336e-02 3.67275365e-02
      3.67275365e-02 3.67275365e-02 3.67275365e-02 3.67275365e-02
      3.68721336e-02 3.68721336e-02 3.68721336e-02 3.62937488e-02
      2.63165813e-02 3.25342342e-02 3.32572199e-02 3.65829393e-02
      3.65829393e-02 3.65829393e-02 3.65829393e-02 3.67275365e-02
      3.67275365e-02 3.67275365e-02 3.67275365e-02 3.68721336e-02
      3.68721336e-02 3.68721336e-02 3.68721336e-02 3.68721336e-02
      3.68721336e-02 3.68721336e-02 3.68721336e-02 3.68721336e-02
      3.68721336e-02 3.68721336e-02 3.68721336e-02 3.68721336e-02
      3.68721336e-02 3.67275365e-02 3.67275365e-02 3.67275365e-02
      3.67275365e-02 3.68721336e-02 2.58827917e-02 3.23896408e-02
      3.32572199e-02 3.65829393e-02 3.65829393e-02 3.65829393e-02
      3.65829393e-02 3.67275365e-02 3.67275365e-02 3.67275365e-02
      3.67275365e-02 3.68721336e-02 3.68721336e-02 3.68721336e-02
      3.68721336e-02 3.68721336e-02 3.68721336e-02 3.68721336e-02
      3.68721336e-02 3.68721336e-02 3.68721336e-02 3.68721336e-02
      3.68721336e-02 3.68721336e-02 3.68721336e-02 3.67275365e-02
      3.67275365e-02 3.67275365e-02 3.67275365e-02 3.68721336e-02
      2.54490022e-02 3.18112522e-02 3.28234285e-02 3.65829393e-02
      3.65829393e-02 3.65829393e-02 3.65829393e-02 3.67275365e-02
      3.67275365e-02 3.67275365e-02 3.67275365e-02 3.68721336e-02
      3.68721336e-02 3.68721336e-02 3.68721336e-02 3.68721336e-02
      3.68721336e-02 3.68721336e-02 3.68721336e-02 3.68721336e-02
      3.68721336e-02 3.68721336e-02 3.68721336e-02 3.68721336e-02
      3.68721336e-02 3.67275365e-02 3.67275365e-02 3.67275365e-02
      3.67275365e-02 3.68721336e-02 2.58827917e-02 3.19558494e-02
      3.28234285e-02 3.65829393e-02 3.65829393e-02 3.65829393e-02
      3.65829393e-02 3.67275365e-02 3.67275365e-02 3.67275365e-02
      3.68721336e-02 3.68721336e-02 3.68721336e-02 3.68721336e-02
      3.68721336e-02 3.68721336e-02 3.68721336e-02 3.68721336e-02
      3.68721336e-02 3.68721336e-02 3.68721336e-02 3.68721336e-02
      3.68721336e-02 3.68721336e-02 3.68721336e-02 3.67275365e-02
      3.67275365e-02 3.67275365e-02 3.67275365e-02 3.68721336e-02
      2.60273889e-02 3.18112522e-02 3.26788314e-02 3.65829393e-02
      3.65829393e-02 3.65829393e-02 3.65829393e-02 3.67275365e-02
      3.67275365e-02 3.67275365e-02 3.67275365e-02 3.68721336e-02
      3.68721336e-02 3.68721336e-02 3.67275365e-02 3.67275365e-02
      3.67275365e-02 3.67275365e-02 3.67275365e-02 3.67275365e-02
      3.67275365e-02 3.67275365e-02 3.67275365e-02 3.67275365e-02
      3.67275365e-02 3.67275365e-02 3.68721336e-02 3.68721336e-02
      3.68721336e-02 3.65829393e-02 2.58827917e-02 3.16666551e-02
      3.25342342e-02 3.65829393e-02 3.65829393e-02 3.65829393e-02
      3.65829393e-02 3.67275365e-02 3.67275365e-02 3.67275365e-02
      3.68721336e-02 3.68721336e-02 3.68721336e-02 3.68721336e-02
      3.67275365e-02 3.67275365e-02 3.67275365e-02 3.67275365e-02
      3.67275365e-02 3.67275365e-02 3.67275365e-02 3.67275365e-02
      3.67275365e-02 3.67275365e-02 3.67275365e-02 3.68721336e-02
      3.68721336e-02 3.68721336e-02 3.68721336e-02 3.65829393e-02
      2.54490022e-02 3.09436731e-02 3.22450437e-02 3.65829393e-02
      3.65829393e-02 3.65829393e-02 3.65829393e-02 3.67275365e-02
      3.67275365e-02 3.67275365e-02 3.68721336e-02 3.68721336e-02
      3.68721336e-02 3.68721336e-02 3.67275365e-02 3.67275365e-02
      3.67275365e-02 3.67275365e-02 3.67275365e-02 3.67275365e-02
      3.67275365e-02 3.67275365e-02 3.67275365e-02 3.67275365e-02
      3.67275365e-02 3.68721336e-02 3.68721336e-02 3.68721336e-02
      3.68721336e-02 3.65829393e-02 2.48706155e-02 2.96423044e-02
      3.16666551e-02 3.65829393e-02 3.65829393e-02 3.65829393e-02
      3.65829393e-02 3.67275365e-02 3.67275365e-02 3.67275365e-02
      3.68721336e-02 3.68721336e-02 3.68721336e-02 3.68721336e-02
      3.67275365e-02 3.67275365e-02 3.67275365e-02 3.67275365e-02
      3.67275365e-02 3.67275365e-02 3.67275365e-02 3.67275365e-02
      3.67275365e-02 3.67275365e-02 3.67275365e-02 3.67275365e-02
      3.68721336e-02 3.68721336e-02 3.68721336e-02 3.65829393e-02
      2.40030363e-02 2.79071443e-02 3.07990760e-02 3.65829393e-02
      3.65829393e-02 3.65829393e-02 3.65829393e-02 3.67275365e-02
      3.67275365e-02 3.67275365e-02 3.68721336e-02 3.68721336e-02
      3.68721336e-02 3.68721336e-02 3.68721336e-02 3.68721336e-02
      3.68721336e-02 3.68721336e-02 3.68721336e-02 3.68721336e-02
      3.68721336e-02 3.68721336e-02 3.68721336e-02 3.68721336e-02
      3.68721336e-02 3.67275365e-02 3.67275365e-02 3.67275365e-02
      3.67275365e-02 3.67275365e-02 2.00989284e-02 2.64611784e-02
      2.97868997e-02 3.61491516e-02 3.62937488e-02 3.65829393e-02
      3.65829393e-02 3.67275365e-02 3.67275365e-02 3.67275365e-02
      3.68721336e-02 3.68721336e-02 3.68721336e-02 3.68721336e-02
      3.68721336e-02 3.68721336e-02 3.68721336e-02 3.68721336e-02
      3.68721336e-02 3.68721336e-02 3.68721336e-02 3.68721336e-02
      3.68721336e-02 3.68721336e-02 3.68721336e-02 3.67275365e-02
      3.67275365e-02 3.67275365e-02 3.67275365e-02 3.67275365e-02
      1.40258707e-02 2.50152126e-02 2.81963386e-02 3.52815725e-02
      3.61491516e-02 3.65829393e-02 3.65829393e-02 3.67275365e-02
      3.67275365e-02 3.67275365e-02 3.68721336e-02 3.68721336e-02
      3.68721336e-02 3.68721336e-02 3.68721336e-02 3.68721336e-02
      3.68721336e-02 3.68721336e-02 3.68721336e-02 3.68721336e-02
      3.68721336e-02 3.68721336e-02 3.68721336e-02 3.68721336e-02
      3.68721336e-02 3.67275365e-02 3.67275365e-02 3.67275365e-02
      3.67275365e-02 3.67275365e-02 8.67579598e-03 1.93759445e-02
      2.67503727e-02 3.16666551e-02 3.39802019e-02 3.65829393e-02
      3.67275365e-02 3.68721336e-02 3.68721336e-02 3.68721336e-02
      3.67275365e-02 3.67275365e-02 3.67275365e-02 3.67275365e-02
      3.65829393e-02 3.65829393e-02 3.65829393e-02 3.65829393e-02
      3.65829393e-02 3.65829393e-02 3.65829393e-02 3.67275365e-02
      3.67275365e-02 3.67275365e-02 3.67275365e-02 3.67275365e-02
      3.68721336e-02 3.68721336e-02 3.68721336e-02 3.65829393e-02
      6.50684722e-03 1.33028878e-02 2.34246496e-02 2.79071443e-02
      3.23896408e-02 3.64383459e-02 3.67275365e-02 3.68721336e-02
      3.68721336e-02 3.68721336e-02 3.67275365e-02 3.67275365e-02
      3.67275365e-02 3.67275365e-02 3.65829393e-02 3.65829393e-02
      3.65829393e-02 3.65829393e-02 3.65829393e-02 3.65829393e-02
      3.65829393e-02 3.65829393e-02 3.67275365e-02 3.67275365e-02
      3.67275365e-02 3.67275365e-02 3.68721336e-02 3.68721336e-02
      3.68721336e-02 3.64383459e-02 5.20547759e-03 8.53119977e-03
      1.50380470e-02 2.51598097e-02 2.87747234e-02 3.23896408e-02
      3.47031839e-02 3.68721336e-02 3.68721336e-02 3.68721336e-02
      3.67275365e-02 3.67275365e-02 3.67275365e-02 3.67275365e-02
      3.65829393e-02 3.65829393e-02 3.65829393e-02 3.65829393e-02
      3.65829393e-02 3.65829393e-02 3.65829393e-02 3.65829393e-02
      3.67275365e-02 3.67275365e-02 3.67275365e-02 3.68721336e-02
      3.68721336e-02 3.68721336e-02 3.68721336e-02 3.60045545e-02
      3.90410842e-03 6.65144389e-03 9.39877890e-03 1.73515920e-02
      2.55935993e-02 2.90639177e-02 3.36910076e-02 3.67275365e-02
      3.68721336e-02 3.68721336e-02 3.67275365e-02 3.67275365e-02
      3.67275365e-02 3.67275365e-02 3.65829393e-02 3.65829393e-02
      3.65829393e-02 3.65829393e-02 3.65829393e-02 3.65829393e-02
      3.65829393e-02 3.65829393e-02 3.67275365e-02 3.67275365e-02
      3.67275365e-02 3.67275365e-02 3.68721336e-02 3.68721336e-02
      3.68721336e-02 3.54261696e-02 1.87975587e-03 3.32572195e-03
      5.35007427e-03 9.83256940e-03 1.72069967e-02 2.55935993e-02
      2.87747234e-02 3.16666551e-02 3.45585868e-02 3.62937488e-02
      3.65829393e-02 3.67275365e-02 3.67275365e-02 3.67275365e-02
      3.65829393e-02 3.65829393e-02 3.65829393e-02 3.65829393e-02
      3.67275365e-02 3.67275365e-02 3.67275365e-02 3.65829393e-02
      3.65829393e-02 3.65829393e-02 3.65829393e-02 3.67275365e-02
      3.68721336e-02 3.67275365e-02 3.57153602e-02 2.94977073e-02</_>
    <_>
      0. 0. 0. 0. 0. 0. 0. 0. 0. 0. 0. 0. 2.27151235e-04 2.27151235e-04
      2.27151235e-04 0. 0. 0. 2.27151235e-04 2.27151235e-04 0. 0. 0. 0.
      0. 0. 0. 0. 0. 0. 0. 0. 0. 0. 0. 0. 0. 0. 0. 2.27151235e-04
      4.54302470e-04 2.27151235e-04 6.81453734e-04 1.13575615e-03
      1.81720988e-03 4.08872217e-03 4.54302458e-03 4.77017602e-03
      5.22447843e-03 5.45162987e-03 4.54302458e-03 4.31587361e-03
      2.95296614e-03 9.08604939e-04 2.27151235e-04 4.54302470e-04
      2.27151235e-04 2.27151235e-04 2.27151235e-04 2.27151235e-04
      2.27151235e-04 2.27151235e-04 0. 0. 2.27151235e-04 2.27151235e-04
      2.27151235e-04 2.27151235e-04 2.27151235e-04 2.27151229e-03
      6.58738567e-03 1.59005867e-03 2.95296614e-03 4.31587361e-03
      4.54302458e-03 5.90593228e-03 6.36023469e-03 6.36023469e-03
      6.13308325e-03 5.45162987e-03 4.77017602e-03 4.31587361e-03
      4.31587361e-03 2.72581493e-03 1.36290747e-03 2.72581493e-03
      2.04436108e-03 9.08604939e-04 4.54302470e-04 4.54302470e-04
      2.27151235e-04 4.54302470e-04 9.08604939e-04 2.27151235e-04
      2.27151235e-04 2.27151235e-04 2.27151235e-04 2.27151235e-04
      2.27151235e-04 7.26883952e-03 1.52191324e-02 3.18011735e-03
      4.54302458e-03 1.13575617e-02 1.34019228e-02 1.29476208e-02
      1.02218054e-02 9.76750348e-03 8.63174722e-03 7.49599095e-03
      5.90593228e-03 4.99732699e-03 4.31587361e-03 3.63441976e-03
      3.63441976e-03 5.22447843e-03 6.58738567e-03 4.77017602e-03
      9.08604939e-04 4.54302470e-04 2.27151235e-04 2.27151235e-04
      4.54302470e-04 6.81453734e-04 1.36290747e-03 1.81720988e-03
      1.59005867e-03 2.72581493e-03 2.72581493e-03 1.15847131e-02
      1.24933179e-02 4.77017602e-03 7.04168808e-03 1.36290742e-02
      1.47648305e-02 1.59005858e-02 1.49919819e-02 1.49919819e-02
      1.59005858e-02 1.59005858e-02 1.40833762e-02 1.18118646e-02
      1.18118646e-02 1.02218054e-02 9.31320060e-03 8.17744434e-03
      9.76750348e-03 8.85889772e-03 3.18011735e-03 1.13575615e-03
      2.27151235e-04 2.27151235e-04 6.81453734e-04 1.59005867e-03
      1.13575615e-03 1.81720988e-03 1.13575615e-03 1.81720988e-03
      3.40726855e-03 7.95029290e-03 1.06761083e-02 1.24933179e-02
      1.49919819e-02 1.61277372e-02 1.61277372e-02 1.54462839e-02
      1.63548887e-02 1.59005858e-02 1.65820401e-02 1.70363430e-02
      1.63548887e-02 1.63548887e-02 1.56734344e-02 1.40833762e-02
      1.31747713e-02 1.06761083e-02 1.06761083e-02 8.17744434e-03
      2.49866350e-03 3.40726855e-03 2.27151235e-04 2.27151235e-04
      2.27151235e-04 2.27151235e-04 0. 0. 2.27151235e-04 2.27151235e-04
      2.95296614e-03 8.40459578e-03 1.02218054e-02 1.09032597e-02
      1.38562256e-02 1.52191324e-02 1.61277372e-02 1.63548887e-02
      1.63548887e-02 1.74906459e-02 1.70363430e-02 1.65820401e-02
      1.61277372e-02 1.65820401e-02 1.65820401e-02 1.61277372e-02
      1.65820401e-02 1.49919819e-02 1.40833762e-02 1.15847131e-02
      4.77017602e-03 9.31320060e-03 0. 2.27151235e-04 2.27151235e-04
      2.27151235e-04 0. 0. 0. 2.27151235e-04 2.27151235e-04
      1.36290747e-03 3.40726855e-03 5.90593228e-03 8.85889772e-03
      1.06761083e-02 1.36290742e-02 1.56734344e-02 1.72634944e-02
      1.99893080e-02 2.56680902e-02 3.20283249e-02 3.77071053e-02
      4.08872217e-02 3.86157110e-02 3.45269889e-02 3.02111134e-02
      2.36237291e-02 1.83992498e-02 1.54462839e-02 1.22661665e-02
      1.61277372e-02 0. 0. 2.27151235e-04 2.27151235e-04 0. 0. 0.
      2.27151235e-04 2.27151235e-04 2.27151235e-04 4.54302470e-04
      9.08604939e-04 3.86157096e-03 5.45162987e-03 7.72314193e-03
      1.72634944e-02 3.47541384e-02 4.22501303e-02 4.72474582e-02
      4.99732718e-02 5.51977493e-02 5.65606579e-02 5.61063550e-02
      5.54249026e-02 5.47434464e-02 5.49705997e-02 4.86103632e-02
      3.22554745e-02 2.22608205e-02 1.97621565e-02 0. 0. 2.27151235e-04
      2.27151235e-04 0. 0. 0. 2.27151235e-04 2.27151235e-04
      2.27151235e-04 4.54302470e-04 9.08604939e-04 4.31587361e-03
      6.81453710e-03 2.58952416e-02 3.95243131e-02 4.81560603e-02
      5.54249026e-02 5.65606579e-02 5.70149608e-02 5.70149608e-02
      5.72421104e-02 5.72421104e-02 5.72421104e-02 5.72421104e-02
      5.72421104e-02 5.65606579e-02 4.86103632e-02 3.92971635e-02
      3.02111134e-02 0. 0. 0. 0. 0. 0. 0. 0. 0. 4.54302470e-04
      9.08604939e-04 2.04436108e-03 8.17744434e-03 2.93025095e-02
      4.33858857e-02 5.24719357e-02 5.58792055e-02 5.72421104e-02
      5.74692637e-02 5.76964132e-02 5.76964132e-02 5.76964132e-02
      5.76964132e-02 5.76964132e-02 5.76964132e-02 5.76964132e-02
      5.74692637e-02 5.58792055e-02 5.26990853e-02 4.22501303e-02 0. 0.
      0. 0. 0. 0. 0. 0. 0. 4.54302470e-04 1.59005867e-03 3.86157096e-03
      2.54409388e-02 4.22501303e-02 4.97461222e-02 5.67878075e-02
      5.79235666e-02 5.76964132e-02 5.76964132e-02 5.76964132e-02
      5.76964132e-02 5.76964132e-02 5.76964132e-02 5.76964132e-02
      5.76964132e-02 5.76964132e-02 5.76964132e-02 5.76964132e-02
      5.74692637e-02 5.56520522e-02 0. 0. 0. 0. 0. 0. 0. 0. 0.
      4.54302470e-04 2.04436108e-03 1.45376790e-02 3.97514664e-02
      4.90646660e-02 5.33805415e-02 5.79235666e-02 5.79235666e-02
      5.76964132e-02 5.74692637e-02 5.74692637e-02 5.76964132e-02
      5.76964132e-02 5.74692637e-02 5.74692637e-02 5.74692637e-02
      5.74692637e-02 5.74692637e-02 5.76964132e-02 5.79235666e-02
      5.76964132e-02 0. 0. 0. 0. 0. 2.27151235e-04 2.27151235e-04 0. 0.
      1.13575615e-03 2.95296614e-03 2.63495427e-02 4.33858857e-02
      5.33805415e-02 5.65606579e-02 5.76964132e-02 5.76964132e-02
      5.74692637e-02 5.74692637e-02 5.74692637e-02 5.76964132e-02
      5.76964132e-02 5.74692637e-02 5.74692637e-02 5.74692637e-02
      5.74692637e-02 5.74692637e-02 5.76964132e-02 5.79235666e-02
      5.79235666e-02 0. 0. 0. 0. 2.27151235e-04 2.27151235e-04
      2.27151235e-04 0. 0. 1.59005867e-03 6.36023469e-03 3.33912298e-02
      4.63388525e-02 5.40619940e-02 5.70149608e-02 5.76964132e-02
      5.76964132e-02 5.74692637e-02 5.74692637e-02 5.74692637e-02
      5.76964132e-02 5.76964132e-02 5.74692637e-02 5.74692637e-02
      5.74692637e-02 5.74692637e-02 5.74692637e-02 5.76964132e-02
      5.79235666e-02 5.79235666e-02 2.27151235e-04 2.27151235e-04 0. 0.
      2.27151235e-04 2.27151235e-04 2.27151235e-04 0. 0. 2.27151229e-03
      8.85889772e-03 3.38455327e-02 4.49759439e-02 5.33805415e-02
      5.63335046e-02 5.76964132e-02 5.76964132e-02 5.74692637e-02
      5.74692637e-02 5.74692637e-02 5.79235666e-02 5.79235666e-02
      5.74692637e-02 5.74692637e-02 5.74692637e-02 5.79235666e-02
      5.79235666e-02 5.76964132e-02 5.74692637e-02 5.74692637e-02
      2.27151235e-04 2.27151235e-04 0. 0. 0. 2.27151235e-04
      2.27151235e-04 0. 0. 2.72581493e-03 1.02218054e-02 3.56627442e-02
      4.83832136e-02 5.38348444e-02 5.63335046e-02 5.76964132e-02
      5.76964132e-02 5.74692637e-02 5.74692637e-02 5.74692637e-02
      5.79235666e-02 5.79235666e-02 5.74692637e-02 5.74692637e-02
      5.74692637e-02 5.79235666e-02 5.79235666e-02 5.76964132e-02
      5.74692637e-02 5.74692637e-02 0. 0. 0. 0. 0. 2.27151235e-04
      2.27151235e-04 0. 2.27151235e-04 2.49866350e-03 8.40459578e-03
      3.54355909e-02 5.02004214e-02 5.49705997e-02 5.72421104e-02
      5.76964132e-02 5.76964132e-02 5.74692637e-02 5.74692637e-02
      5.74692637e-02 5.74692637e-02 5.74692637e-02 5.72421104e-02
      5.72421104e-02 5.72421104e-02 5.76964132e-02 5.76964132e-02
      5.74692637e-02 5.74692637e-02 5.74692637e-02 0. 0. 0. 0. 0.
      2.27151235e-04 2.27151235e-04 0. 0. 1.81720988e-03 7.26883952e-03
      3.20283249e-02 4.72474582e-02 5.45162968e-02 5.72421104e-02
      5.76964132e-02 5.76964132e-02 5.74692637e-02 5.74692637e-02
      5.74692637e-02 5.74692637e-02 5.74692637e-02 5.72421104e-02
      5.72421104e-02 5.72421104e-02 5.76964132e-02 5.76964132e-02
      5.74692637e-02 5.74692637e-02 5.74692637e-02 2.27151235e-04
      2.27151235e-04 0. 0. 0. 2.27151235e-04 2.27151235e-04 0. 0.
      1.59005867e-03 6.13308325e-03 2.56680902e-02 4.29315828e-02
      5.31533882e-02 5.63335046e-02 5.76964132e-02 5.76964132e-02
      5.74692637e-02 5.74692637e-02 5.74692637e-02 5.79235666e-02
      5.79235666e-02 5.74692637e-02 5.74692637e-02 5.74692637e-02
      5.79235666e-02 5.79235666e-02 5.76964132e-02 5.74692637e-02
      5.74692637e-02 2.27151235e-04 2.27151235e-04 0. 0. 2.27151235e-04
      2.27151235e-04 2.27151235e-04 0. 0. 6.81453734e-04 3.18011735e-03
      1.59005858e-02 3.81614082e-02 4.92918193e-02 5.40619940e-02
      5.76964132e-02 5.76964132e-02 5.74692637e-02 5.74692637e-02
      5.74692637e-02 5.79235666e-02 5.79235666e-02 5.74692637e-02
      5.74692637e-02 5.74692637e-02 5.79235666e-02 5.79235666e-02
      5.76964132e-02 5.74692637e-02 5.74692637e-02 0. 0. 0. 0. 0. 0. 0.
      0. 0. 2.27151235e-04 1.36290747e-03 6.36023469e-03 2.99839638e-02
      3.99786159e-02 4.83832136e-02 5.74692637e-02 5.79235666e-02
      5.79235666e-02 5.79235666e-02 5.79235666e-02 5.74692637e-02
      5.74692637e-02 5.76964132e-02 5.76964132e-02 5.76964132e-02
      5.76964132e-02 5.76964132e-02 5.74692637e-02 5.74692637e-02
      5.74692637e-02 0. 0. 0. 0. 0. 0. 0. 0. 0. 2.27151235e-04
      6.81453734e-04 2.72581493e-03 1.56734344e-02 3.22554745e-02
      4.15686741e-02 5.45162968e-02 5.79235666e-02 5.79235666e-02
      5.79235666e-02 5.79235666e-02 5.74692637e-02 5.74692637e-02
      5.76964132e-02 5.76964132e-02 5.76964132e-02 5.76964132e-02
      5.76964132e-02 5.74692637e-02 5.74692637e-02 5.74692637e-02 0. 0.
      0. 0. 0. 0. 0. 2.27151235e-04 2.27151235e-04 2.27151235e-04
      2.27151235e-04 1.13575615e-03 6.81453710e-03 1.52191324e-02
      3.15740220e-02 4.31587361e-02 5.11090271e-02 5.72421104e-02
      5.76964132e-02 5.79235666e-02 5.74692637e-02 5.74692637e-02
      5.76964132e-02 5.76964132e-02 5.76964132e-02 5.76964132e-02
      5.76964132e-02 5.76964132e-02 5.74692637e-02 5.74692637e-02 0. 0.
      0. 0. 0. 0. 0. 2.27151235e-04 2.27151235e-04 2.27151235e-04
      2.27151235e-04 4.54302470e-04 1.59005867e-03 4.77017602e-03
      1.18118646e-02 2.97568124e-02 4.04329188e-02 5.17904833e-02
      5.65606579e-02 5.74692637e-02 5.76964132e-02 5.76964132e-02
      5.76964132e-02 5.76964132e-02 5.76964132e-02 5.76964132e-02
      5.76964132e-02 5.76964132e-02 5.76964132e-02 5.74692637e-02 0. 0.
      0. 0. 0. 0. 0. 2.27151235e-04 2.27151235e-04 2.27151235e-04
      2.27151235e-04 2.27151235e-04 2.27151235e-04 9.08604939e-04
      3.63441976e-03 1.06761083e-02 2.38508806e-02 3.63441966e-02
      4.49759439e-02 5.31533882e-02 5.67878075e-02 5.76964132e-02
      5.76964132e-02 5.76964132e-02 5.76964132e-02 5.76964132e-02
      5.76964132e-02 5.72421104e-02 5.61063550e-02 4.95189689e-02 0. 0.
      0. 0. 0. 0. 0. 0. 0. 0. 2.27151235e-04 2.27151235e-04 0. 0.
      4.54302470e-04 1.59005867e-03 4.31587361e-03 1.59005858e-02
      2.58952416e-02 3.70256528e-02 4.77017611e-02 5.38348444e-02
      5.63335046e-02 5.72421104e-02 5.72421104e-02 5.70149608e-02
      5.63335046e-02 4.97461222e-02 3.29369307e-02 1.47648305e-02 0. 0.
      0. 0. 0. 0. 0. 0. 0. 0. 2.27151235e-04 2.27151235e-04 0. 0. 0. 0.
      4.54302470e-04 5.45162987e-03 8.17744434e-03 1.11304102e-02
      1.47648305e-02 1.61277372e-02 2.06707623e-02 2.70309970e-02
      2.83939037e-02 2.20336691e-02 1.31747713e-02 9.08604916e-03
      7.72314193e-03 4.99732699e-03 0. 0. 0. 0. 0. 0. 0. 0. 0. 0.
      2.27151235e-04 2.27151235e-04 2.27151235e-04 2.27151235e-04
      2.27151235e-04 2.27151235e-04 2.27151235e-04 4.54302470e-04
      4.54302470e-04 9.08604939e-04 3.63441976e-03 5.45162987e-03
      6.58738567e-03 7.95029290e-03 7.49599095e-03 4.77017602e-03
      3.40726855e-03 1.81720988e-03 1.13575615e-03 9.08604939e-04 0. 0.
      0. 0. 0. 0. 0. 0. 0. 0. 2.27151235e-04 2.27151235e-04
      2.27151235e-04 2.27151235e-04 2.27151235e-04 2.27151235e-04
      2.27151235e-04 2.27151235e-04 2.27151235e-04 2.27151235e-04
      9.08604939e-04 1.13575615e-03 9.08604939e-04 9.08604939e-04
      9.08604939e-04 9.08604939e-04 6.81453734e-04 4.54302470e-04
      4.54302470e-04 4.54302470e-04</_>
    <_>
      4.01544559e-04 4.01544559e-04 6.02316810e-04 4.01544559e-04
      4.01544559e-04 4.01544559e-04 4.01544559e-04 6.02316810e-04
      6.02316810e-04 4.01544559e-04 2.00772280e-04 2.00772280e-04
      2.00772280e-04 2.00772280e-04 2.00772280e-04 2.00772280e-04 0. 0.
      0. 0. 0. 0. 0. 0. 0. 0. 0. 0. 0. 0. 4.01544571e-03 4.21621790e-03
      4.81853448e-03 5.01930714e-03 4.01544571e-03 3.41312867e-03
      3.81467328e-03 3.41312867e-03 1.80695055e-03 1.20463362e-03
      6.02316810e-04 6.02316810e-04 4.01544559e-04 2.00772280e-04
      2.00772280e-04 2.00772280e-04 2.00772280e-04 2.00772280e-04
      2.00772280e-04 2.00772280e-04 2.00772280e-04 0. 0. 0. 0. 0. 0. 0.
      0. 0. 4.41699009e-03 5.22007933e-03 6.02316856e-03 6.22394076e-03
      5.42085152e-03 3.81467328e-03 3.41312867e-03 3.01158428e-03
      2.81081186e-03 2.20849505e-03 1.80695055e-03 2.20849505e-03
      1.40540593e-03 8.03089119e-04 2.00772280e-04 2.00772280e-04
      2.00772280e-04 2.00772280e-04 2.00772280e-04 2.00772280e-04
      2.00772280e-04 0. 0. 0. 0. 0. 0. 0. 0. 0. 9.63706896e-03
      8.83398019e-03 8.63320846e-03 7.83011876e-03 7.83011876e-03
      6.62548514e-03 6.02316856e-03 4.01544571e-03 3.81467328e-03
      4.01544571e-03 4.41699009e-03 5.01930714e-03 5.22007933e-03
      5.62162371e-03 2.40926724e-03 1.40540593e-03 4.01544559e-04
      4.01544559e-04 4.01544559e-04 6.02316810e-04 6.02316810e-04
      4.01544559e-04 2.00772280e-04 2.00772280e-04 2.00772280e-04
      2.00772280e-04 2.00772280e-04 0. 0. 0. 1.22471089e-02
      1.22471089e-02 1.26486532e-02 1.20463371e-02 1.18455645e-02
      1.14440201e-02 9.23552457e-03 8.03089142e-03 8.63320846e-03
      6.02316856e-03 6.22394076e-03 6.42471295e-03 7.42857438e-03
      7.42857438e-03 3.41312867e-03 2.61003966e-03 2.20849505e-03
      2.40926724e-03 8.03089119e-04 6.02316810e-04 6.02316810e-04
      4.01544559e-04 2.00772280e-04 2.00772280e-04 2.00772280e-04
      2.00772280e-04 2.00772280e-04 0. 0. 0. 1.28494259e-02
      1.36525147e-02 1.36525147e-02 1.44556044e-02 1.38532873e-02
      1.36525147e-02 1.32509703e-02 1.40540600e-02 1.28494259e-02
      1.18455645e-02 1.02393860e-02 9.03475285e-03 9.23552457e-03
      9.03475285e-03 3.61390109e-03 2.61003966e-03 8.03089142e-03
      8.63320846e-03 1.60617824e-03 4.01544559e-04 4.01544559e-04
      4.01544559e-04 2.00772280e-04 2.00772280e-04 2.00772280e-04
      2.00772280e-04 2.00772280e-04 0. 0. 0. 1.42548317e-02
      1.46563761e-02 1.46563761e-02 1.46563761e-02 1.42548317e-02
      1.40540600e-02 1.48571488e-02 1.52586931e-02 1.52586931e-02
      1.46563761e-02 1.42548317e-02 1.24478815e-02 1.08417030e-02
      9.83784162e-03 4.41699009e-03 4.01544571e-03 1.72664169e-02
      1.16447918e-02 2.61003966e-03 2.00772280e-04 2.00772280e-04
      2.00772280e-04 4.01544559e-04 4.01544559e-04 0. 0. 0. 0. 0. 0.
      1.34517429e-02 1.44556044e-02 1.58610102e-02 1.42548317e-02
      1.60617828e-02 1.86718218e-02 2.06795447e-02 1.96756832e-02
      1.84710491e-02 1.72664169e-02 1.56602375e-02 1.30501986e-02
      1.26486532e-02 1.32509703e-02 9.43629723e-03 7.83011876e-03
      1.90733671e-02 8.83398019e-03 2.61003966e-03 2.00772280e-04
      2.00772280e-04 2.00772280e-04 4.01544559e-04 4.01544559e-04 0. 0.
      0. 0. 0. 0. 1.28494259e-02 1.82702783e-02 2.48957630e-02
      3.13204750e-02 3.61390114e-02 3.93513665e-02 4.15598601e-02
      4.33668122e-02 4.05559987e-02 3.75444181e-02 4.05559987e-02
      3.23243365e-02 2.56988518e-02 1.72664169e-02 1.42548317e-02
      1.44556044e-02 1.42548317e-02 5.82239591e-03 3.61390109e-03
      3.01158428e-03 2.61003966e-03 1.80695055e-03 1.20463362e-03
      8.03089119e-04 2.00772280e-04 2.00772280e-04 2.00772280e-04 0. 0.
      0. 2.48957630e-02 3.53359208e-02 3.77451889e-02 4.29652669e-02
      4.67799418e-02 4.83861193e-02 4.97915260e-02 5.07953875e-02
      5.03938422e-02 4.97915260e-02 4.89884354e-02 4.81853485e-02
      4.63783965e-02 3.55366953e-02 2.42934451e-02 1.88725945e-02
      1.62625555e-02 6.62548514e-03 4.21621790e-03 3.21235647e-03
      3.01158428e-03 2.20849505e-03 1.40540593e-03 1.20463362e-03
      6.02316810e-04 2.00772280e-04 2.00772280e-04 0. 0. 0.
      3.89498211e-02 4.45714444e-02 4.69807126e-02 4.81853485e-02
      4.95907515e-02 5.01930714e-02 5.05946130e-02 5.07953875e-02
      5.05946130e-02 5.03938422e-02 5.03938422e-02 4.99922968e-02
      4.97915260e-02 4.59768511e-02 3.89498211e-02 3.11197042e-02
      2.14826334e-02 9.23552457e-03 5.82239591e-03 2.61003966e-03
      2.00772285e-03 1.40540593e-03 1.00386143e-03 8.03089119e-04
      2.00772280e-04 2.00772280e-04 2.00772280e-04 0. 0. 0.
      4.45714444e-02 4.81853485e-02 5.05946130e-02 5.07953875e-02
      5.09961583e-02 5.11969328e-02 5.11969328e-02 5.07953875e-02
      5.07953875e-02 5.07953875e-02 5.11969328e-02 5.11969328e-02
      5.11969328e-02 5.05946130e-02 4.79845740e-02 4.19614054e-02
      3.39305140e-02 2.12818608e-02 9.43629723e-03 3.21235647e-03
      2.00772285e-03 1.80695055e-03 1.00386143e-03 6.02316810e-04
      4.01544559e-04 2.00772280e-04 2.00772280e-04 0. 0. 0.
      5.05946130e-02 5.07953875e-02 5.07953875e-02 5.07953875e-02
      5.11969328e-02 5.11969328e-02 5.11969328e-02 5.07953875e-02
      5.07953875e-02 5.07953875e-02 5.11969328e-02 5.11969328e-02
      5.11969328e-02 5.11969328e-02 5.07953875e-02 4.87876646e-02
      3.97529118e-02 3.45328338e-02 1.90733671e-02 3.01158428e-03
      8.03089119e-04 8.03089119e-04 8.03089119e-04 6.02316810e-04
      4.01544559e-04 2.00772280e-04 0. 0. 0. 0. 5.07953875e-02
      5.09961583e-02 5.11969328e-02 5.11969328e-02 5.07953875e-02
      5.07953875e-02 5.07953875e-02 5.09961583e-02 5.09961583e-02
      5.09961583e-02 5.07953875e-02 5.07953875e-02 5.07953875e-02
      5.11969328e-02 5.11969328e-02 5.11969328e-02 5.05946130e-02
      4.59768511e-02 3.57374661e-02 1.30501986e-02 8.03089119e-04
      4.01544559e-04 4.01544559e-04 4.01544559e-04 2.00772280e-04
      2.00772280e-04 2.00772280e-04 0. 0. 0. 5.07953875e-02
      5.09961583e-02 5.11969328e-02 5.11969328e-02 5.07953875e-02
      5.07953875e-02 5.07953875e-02 5.09961583e-02 5.09961583e-02
      5.09961583e-02 5.07953875e-02 5.07953875e-02 5.07953875e-02
      5.11969328e-02 5.11969328e-02 5.11969328e-02 5.11969328e-02
      5.07953875e-02 4.61776257e-02 3.15212496e-02 5.42085152e-03
      1.20463362e-03 4.01544559e-04 4.01544559e-04 2.00772280e-04
      2.00772280e-04 2.00772280e-04 0. 0. 0. 5.11969328e-02
      5.09961583e-02 5.09961583e-02 5.09961583e-02 5.09961583e-02
      5.11969328e-02 5.11969328e-02 5.09961583e-02 5.09961583e-02
      5.09961583e-02 5.11969328e-02 5.11969328e-02 5.11969328e-02
      5.07953875e-02 5.07953875e-02 5.07953875e-02 5.11969328e-02
      5.11969328e-02 4.97915260e-02 4.35675830e-02 1.98764559e-02
      3.01158428e-03 8.03089119e-04 4.01544559e-04 0. 0. 0. 0. 0. 0.
      5.11969328e-02 5.09961583e-02 5.09961583e-02 5.09961583e-02
      5.11969328e-02 5.11969328e-02 5.11969328e-02 5.09961583e-02
      5.09961583e-02 5.09961583e-02 5.11969328e-02 5.11969328e-02
      5.11969328e-02 5.07953875e-02 5.07953875e-02 5.07953875e-02
      5.11969328e-02 5.11969328e-02 5.05946130e-02 4.87876646e-02
      3.23243365e-02 5.62162371e-03 1.20463362e-03 4.01544559e-04 0. 0.
      0. 0. 0. 0. 5.11969328e-02 5.09961583e-02 5.09961583e-02
      5.09961583e-02 5.11969328e-02 5.11969328e-02 5.11969328e-02
      5.09961583e-02 5.09961583e-02 5.09961583e-02 5.11969328e-02
      5.11969328e-02 5.11969328e-02 5.07953875e-02 5.07953875e-02
      5.07953875e-02 5.11969328e-02 5.11969328e-02 5.07953875e-02
      4.99922968e-02 3.95521373e-02 1.10424757e-02 2.00772285e-03
      6.02316810e-04 2.00772280e-04 0. 0. 0. 0. 0. 5.07953875e-02
      5.09961583e-02 5.11969328e-02 5.11969328e-02 5.07953875e-02
      5.07953875e-02 5.07953875e-02 5.09961583e-02 5.09961583e-02
      5.09961583e-02 5.09961583e-02 5.09961583e-02 5.09961583e-02
      5.09961583e-02 5.09961583e-02 5.09961583e-02 5.07953875e-02
      5.07953875e-02 5.07953875e-02 5.07953875e-02 4.39691283e-02
      1.62625555e-02 2.40926724e-03 6.02316810e-04 0. 0. 0.
      2.00772280e-04 2.00772280e-04 2.00772280e-04 5.07953875e-02
      5.09961583e-02 5.11969328e-02 5.11969328e-02 5.07953875e-02
      5.07953875e-02 5.07953875e-02 5.09961583e-02 5.09961583e-02
      5.09961583e-02 5.09961583e-02 5.09961583e-02 5.09961583e-02
      5.09961583e-02 5.09961583e-02 5.09961583e-02 5.07953875e-02
      5.07953875e-02 5.07953875e-02 5.07953875e-02 4.51737642e-02
      1.84710491e-02 2.81081186e-03 6.02316810e-04 0. 0. 0.
      2.00772280e-04 2.00772280e-04 2.00772280e-04 5.11969328e-02
      5.09961583e-02 5.09961583e-02 5.09961583e-02 5.11969328e-02
      5.11969328e-02 5.11969328e-02 5.09961583e-02 5.09961583e-02
      5.09961583e-02 5.11969328e-02 5.11969328e-02 5.11969328e-02
      5.07953875e-02 5.07953875e-02 5.07953875e-02 5.11969328e-02
      5.11969328e-02 5.09961583e-02 5.05946130e-02 4.09575440e-02
      1.46563761e-02 3.61390109e-03 4.01544559e-04 0. 0. 0.
      2.00772280e-04 2.00772280e-04 2.00772280e-04 5.11969328e-02
      5.09961583e-02 5.09961583e-02 5.09961583e-02 5.11969328e-02
      5.11969328e-02 5.11969328e-02 5.09961583e-02 5.09961583e-02
      5.09961583e-02 5.11969328e-02 5.11969328e-02 5.11969328e-02
      5.07953875e-02 5.07953875e-02 5.07953875e-02 5.11969328e-02
      5.11969328e-02 5.09961583e-02 5.05946130e-02 4.23629507e-02
      1.74671877e-02 4.01544571e-03 4.01544559e-04 0. 0. 0.
      2.00772280e-04 2.00772280e-04 2.00772280e-04 5.11969328e-02
      5.09961583e-02 5.09961583e-02 5.09961583e-02 5.09961583e-02
      5.11969328e-02 5.11969328e-02 5.09961583e-02 5.09961583e-02
      5.09961583e-02 5.11969328e-02 5.11969328e-02 5.11969328e-02
      5.07953875e-02 5.07953875e-02 5.07953875e-02 5.11969328e-02
      5.11969328e-02 5.09961583e-02 5.01930714e-02 3.99536826e-02
      1.20463371e-02 4.01544571e-03 4.01544559e-04 0. 0. 0.
      2.00772280e-04 2.00772280e-04 2.00772280e-04 5.09961583e-02
      5.09961583e-02 5.11969328e-02 5.11969328e-02 5.07953875e-02
      5.07953875e-02 5.07953875e-02 5.09961583e-02 5.09961583e-02
      5.09961583e-02 5.09961583e-02 5.09961583e-02 5.09961583e-02
      5.09961583e-02 5.09961583e-02 5.09961583e-02 5.07953875e-02
      5.07953875e-02 5.07953875e-02 4.89884354e-02 3.33281979e-02
      5.82239591e-03 2.00772285e-03 4.01544559e-04 0. 0. 0.
      2.00772280e-04 2.00772280e-04 2.00772280e-04 5.09961583e-02
      5.11969328e-02 5.11969328e-02 5.11969328e-02 5.07953875e-02
      5.07953875e-02 5.07953875e-02 5.09961583e-02 5.09961583e-02
      5.09961583e-02 5.09961583e-02 5.09961583e-02 5.09961583e-02
      5.09961583e-02 5.09961583e-02 5.09961583e-02 5.07953875e-02
      5.07953875e-02 5.03938422e-02 4.55753058e-02 1.88725945e-02
      2.40926724e-03 8.03089119e-04 4.01544559e-04 0. 0. 0.
      2.00772280e-04 2.00772280e-04 2.00772280e-04 4.25637215e-02
      4.79845740e-02 5.11969328e-02 5.11969328e-02 5.11969328e-02
      5.11969328e-02 5.11969328e-02 5.09961583e-02 5.09961583e-02
      5.09961583e-02 5.11969328e-02 5.11969328e-02 5.11969328e-02
      5.09961583e-02 5.09961583e-02 5.09961583e-02 5.11969328e-02
      5.11969328e-02 4.77838032e-02 3.11197042e-02 7.62934657e-03
      3.21235647e-03 6.02316810e-04 4.01544559e-04 0. 0. 0. 0. 0. 0.
      3.63397822e-02 4.39691283e-02 4.93899807e-02 5.09961583e-02
      5.11969328e-02 5.11969328e-02 5.11969328e-02 5.09961583e-02
      5.09961583e-02 5.09961583e-02 5.11969328e-02 5.11969328e-02
      5.11969328e-02 5.09961583e-02 5.09961583e-02 5.09961583e-02
      5.11969328e-02 5.01930714e-02 3.71428728e-02 1.36525147e-02
      3.41312867e-03 1.60617824e-03 4.01544559e-04 4.01544559e-04 0. 0.
      0. 0. 0. 0. 2.18841787e-02 3.37297432e-02 4.13590893e-02
      4.55753058e-02 4.95907515e-02 5.05946130e-02 5.09961583e-02
      5.09961583e-02 5.09961583e-02 5.09961583e-02 5.09961583e-02
      5.09961583e-02 5.09961583e-02 5.09961583e-02 5.09961583e-02
      5.05946130e-02 4.81853485e-02 3.61390114e-02 1.40540600e-02
      6.22394076e-03 2.00772285e-03 8.03089119e-04 2.00772280e-04
      2.00772280e-04 0. 0. 0. 0. 0. 0. 6.82625733e-03 1.58610102e-02
      3.17220204e-02 3.59382369e-02 4.39691283e-02 4.89884354e-02
      5.05946130e-02 5.09961583e-02 5.09961583e-02 5.09961583e-02
      5.07953875e-02 5.07953875e-02 5.07953875e-02 5.09961583e-02
      4.87876646e-02 4.37683575e-02 2.58996245e-02 8.63320846e-03
      4.61776229e-03 2.00772285e-03 4.01544559e-04 2.00772280e-04
      2.00772280e-04 2.00772280e-04 0. 0. 0. 0. 0. 0. 2.40926724e-03
      6.22394076e-03 9.23552457e-03 2.04787720e-02 2.52973065e-02
      3.59382369e-02 4.29652669e-02 4.67799418e-02 4.97915260e-02
      5.09961583e-02 5.07953875e-02 5.05946130e-02 4.89884354e-02
      4.01544571e-02 2.44942177e-02 1.18455645e-02 6.62548514e-03
      3.81467328e-03 2.61003966e-03 8.03089119e-04 0. 0. 2.00772280e-04
      2.00772280e-04 0. 0. 0. 0. 0. 0.</_>
    <_>
      7.35240290e-03 7.35240290e-03 7.55663635e-03 7.14816945e-03
      5.71853528e-03 5.10583539e-03 4.49313503e-03 3.47196800e-03
      2.65503442e-03 2.45080097e-03 4.08466812e-03 3.88043467e-03
      4.08466812e-03 2.04233406e-03 1.02116703e-03 8.16933636e-04
      4.08466818e-04 4.08466818e-04 4.08466818e-04 4.08466818e-04
      4.08466818e-04 2.04233409e-04 2.04233409e-04 2.04233409e-04 0. 0.
      0. 0. 0. 0. 1.20497709e-02 1.06201377e-02 9.19050351e-03
      8.78203660e-03 6.73970254e-03 5.92276873e-03 4.90160193e-03
      3.88043467e-03 4.28890157e-03 4.49313503e-03 5.51430183e-03
      6.53546909e-03 6.33123564e-03 3.88043467e-03 1.22540048e-03
      8.16933636e-04 4.08466818e-04 4.08466818e-04 4.08466818e-04
      4.08466818e-04 4.08466818e-04 2.04233409e-04 2.04233409e-04
      2.04233409e-04 0. 0. 0. 0. 0. 0. 1.30709382e-02 1.28667047e-02
      1.34794051e-02 1.30709382e-02 1.36836385e-02 1.22540044e-02
      1.06201377e-02 9.39473696e-03 9.59897041e-03 7.76086934e-03
      7.55663635e-03 7.76086934e-03 8.78203660e-03 5.71853528e-03
      1.42963382e-03 1.22540048e-03 4.28890157e-03 1.42963382e-03
      1.02116703e-03 4.08466818e-04 4.08466818e-04 2.04233409e-04
      2.04233409e-04 2.04233409e-04 0. 0. 0. 0. 0. 0. 1.28667047e-02
      1.42963389e-02 1.49090393e-02 1.55217387e-02 1.51132727e-02
      1.53175052e-02 1.49090393e-02 1.34794051e-02 1.30709382e-02
      1.16413040e-02 1.02116708e-02 9.59897041e-03 9.59897041e-03
      6.33123564e-03 1.22540048e-03 3.47196800e-03 1.08243711e-02
      2.24656751e-03 1.42963382e-03 4.08466818e-04 4.08466818e-04
      2.04233409e-04 2.04233409e-04 2.04233409e-04 0. 0. 0. 0. 0. 0.
      1.36836385e-02 1.45005723e-02 1.47048058e-02 1.47048058e-02
      1.49090393e-02 1.49090393e-02 1.45005723e-02 1.42963389e-02
      1.47048058e-02 1.49090393e-02 1.40921054e-02 1.26624713e-02
      1.08243711e-02 6.94393599e-03 1.42963382e-03 8.37356970e-03
      1.73598398e-02 2.45080097e-03 1.63386727e-03 4.08466818e-04
      4.08466818e-04 2.04233409e-04 2.04233409e-04 2.04233409e-04 0. 0.
      0. 0. 0. 0. 1.38878720e-02 1.53175052e-02 1.71556063e-02
      2.02191081e-02 2.45080087e-02 2.71630436e-02 2.81842109e-02
      2.69588102e-02 2.53249425e-02 2.43037753e-02 1.77683067e-02
      1.55217387e-02 1.49090393e-02 1.22540044e-02 8.57780315e-03
      1.65429059e-02 1.53175052e-02 4.08466812e-03 2.24656751e-03
      4.08466818e-04 4.08466818e-04 2.04233409e-04 2.04233409e-04
